{"learner":{"attributes":{"scikit_learn":"{\"_estimator_type\": \"regressor\"}"},"feature_names":["hour","dayofweek","quarter","month","year","dayofyear","dayofmonth","weekofyear","rolling_mean_24h","rolling_std_24h","rolling_mean_7d","rolling_std_7d","ewm_24h","ewm_7d","sin_hour","cos_hour","sin_dayofyear","cos_dayofyear","lag1","lag2","lag3"],"feature_types":["int","int","int","int","int","int","int","int","float","float","float","float","float","float","float","float","float","float","float","float","float"],"gradient_booster":{"model":{"gbtree_model_param":{"num_parallel_tree":"1","num_trees":"500"},"iteration_indptr":[0,1,2,3,4,5,6,7,8,9,10,11,12,13,14,15,16,17,18,19,20,21,22,23,24,25,26,27,28,29,30,31,32,33,34,35,36,37,38,39,40,41,42,43,44,45,46,47,48,49,50,51,52,53,54,55,56,57,58,59,60,61,62,63,64,65,66,67,68,69,70,71,72,73,74,75,76,77,78,79,80,81,82,83,84,85,86,87,88,89,90,91,92,93,94,95,96,97,98,99,100,101,102,103,104,105,106,107,108,109,110,111,112,113,114,115,116,117,118,119,120,121,122,123,124,125,126,127,128,129,130,131,132,133,134,135,136,137,138,139,140,141,142,143,144,145,146,147,148,149,150,151,152,153,154,155,156,157,158,159,160,161,162,163,164,165,166,167,168,169,170,171,172,173,174,175,176,177,178,179,180,181,182,183,184,185,186,187,188,189,190,191,192,193,194,195,196,197,198,199,200,201,202,203,204,205,206,207,208,209,210,211,212,213,214,215,216,217,218,219,220,221,222,223,224,225,226,227,228,229,230,231,232,233,234,235,236,237,238,239,240,241,242,243,244,245,246,247,248,249,250,251,252,253,254,255,256,257,258,259,260,261,262,263,264,265,266,267,268,269,270,271,272,273,274,275,276,277,278,279,280,281,282,283,284,285,286,287,288,289,290,291,292,293,294,295,296,297,298,299,300,301,302,303,304,305,306,307,308,309,310,311,312,313,314,315,316,317,318,319,320,321,322,323,324,325,326,327,328,329,330,331,332,333,334,335,336,337,338,339,340,341,342,343,344,345,346,347,348,349,350,351,352,353,354,355,356,357,358,359,360,361,362,363,364,365,366,367,368,369,370,371,372,373,374,375,376,377,378,379,380,381,382,383,384,385,386,387,388,389,390,391,392,393,394,395,396,397,398,399,400,401,402,403,404,405,406,407,408,409,410,411,412,413,414,415,416,417,418,419,420,421,422,423,424,425,426,427,428,429,430,431,432,433,434,435,436,437,438,439,440,441,442,443,444,445,446,447,448,449,450,451,452,453,454,455,456,457,458,459,460,461,462,463,464,465,466,467,468,469,470,471,472,473,474,475,476,477,478,479,480,481,482,483,484,485,486,487,488,489,490,491,492,493,494,495,496,497,498,499,500],"tree_info":[0,0,0,0,0,0,0,0,0,0,0,0,0,0,0,0,0,0,0,0,0,0,0,0,0,0,0,0,0,0,0,0,0,0,0,0,0,0,0,0,0,0,0,0,0,0,0,0,0,0,0,0,0,0,0,0,0,0,0,0,0,0,0,0,0,0,0,0,0,0,0,0,0,0,0,0,0,0,0,0,0,0,0,0,0,0,0,0,0,0,0,0,0,0,0,0,0,0,0,0,0,0,0,0,0,0,0,0,0,0,0,0,0,0,0,0,0,0,0,0,0,0,0,0,0,0,0,0,0,0,0,0,0,0,0,0,0,0,0,0,0,0,0,0,0,0,0,0,0,0,0,0,0,0,0,0,0,0,0,0,0,0,0,0,0,0,0,0,0,0,0,0,0,0,0,0,0,0,0,0,0,0,0,0,0,0,0,0,0,0,0,0,0,0,0,0,0,0,0,0,0,0,0,0,0,0,0,0,0,0,0,0,0,0,0,0,0,0,0,0,0,0,0,0,0,0,0,0,0,0,0,0,0,0,0,0,0,0,0,0,0,0,0,0,0,0,0,0,0,0,0,0,0,0,0,0,0,0,0,0,0,0,0,0,0,0,0,0,0,0,0,0,0,0,0,0,0,0,0,0,0,0,0,0,0,0,0,0,0,0,0,0,0,0,0,0,0,0,0,0,0,0,0,0,0,0,0,0,0,0,0,0,0,0,0,0,0,0,0,0,0,0,0,0,0,0,0,0,0,0,0,0,0,0,0,0,0,0,0,0,0,0,0,0,0,0,0,0,0,0,0,0,0,0,0,0,0,0,0,0,0,0,0,0,0,0,0,0,0,0,0,0,0,0,0,0,0,0,0,0,0,0,0,0,0,0,0,0,0,0,0,0,0,0,0,0,0,0,0,0,0,0,0,0,0,0,0,0,0,0,0,0,0,0,0,0,0,0,0,0,0,0,0,0,0,0,0,0,0,0,0,0,0,0,0,0,0,0,0,0,0,0,0,0,0,0,0,0,0,0,0,0,0,0,0,0,0,0,0,0,0,0,0,0,0,0,0,0,0,0,0,0,0,0,0,0,0,0,0,0,0,0,0,0,0,0,0,0,0,0,0,0,0,0,0,0,0,0,0,0],"trees":[{"base_weights":[3.208109E4,2.9218336E4,3.763653E4,2.4716914E4,3.1124049E4,3.132369E4,4.0451727E4,2.3121404E2,2.6417886E2,2.8528214E2,3.2805304E2,3.0339822E2,3.4147467E2,3.819133E2,4.5290698E2],"categories":[],"categories_nodes":[],"categories_segments":[],"categories_sizes":[],"default_left":[0,0,0,0,0,0,0,0,0,0,0,0,0,0,0],"id":0,"left_children":[1,3,5,7,9,11,13,-1,-1,-1,-1,-1,-1,-1,-1],"loss_changes":[2.3105582E12,8.221339E11,8.771296E11,7.68365E10,2.9317766E11,4.1326477E10,3.7212285E11,0E0,0E0,0E0,0E0,0E0,0E0,0E0,0E0],"parents":[2147483647,0,0,1,1,2,2,3,3,4,4,5,5,6,6],"right_children":[2,4,6,8,10,12,14,-1,-1,-1,-1,-1,-1,-1,-1],"split_conditions":[3.344383E4,7E0,8E0,2.928725E4,2.8790012E4,3.8891605E4,3.8448375E4,2.3121404E2,2.6417886E2,2.8528214E2,3.2805304E2,3.0339822E2,3.4147467E2,3.819133E2,4.5290698E2],"split_indices":[12,0,0,12,12,12,12,0,0,0,0,0,0,0,0],"split_type":[0,0,0,0,0,0,0,0,0,0,0,0,0,0,0],"sum_hessian":[1.45351E5,9.5926E4,4.9425E4,2.8536E4,6.739E4,1.5247E4,3.4178E4,1.4732E4,1.3804E4,2.6497E4,4.0893E4,1.1316E4,3.931E3,2.3302E4,1.0876E4],"tree_param":{"num_deleted":"0","num_feature":"21","num_nodes":"15","size_leaf_vector":"1"}},{"base_weights":[3.1760297E4,2.887663E4,3.7165977E4,2.4430996E4,3.0760492E4,3.0950582E4,3.9941816E4,2.2854172E2,2.6074445E2,2.8210477E2,3.240322E2,2.983847E2,3.3427426E2,3.7727875E2,4.4837836E2],"categories":[],"categories_nodes":[],"categories_segments":[],"categories_sizes":[],"default_left":[0,0,0,0,0,0,0,0,0,0,0,0,0,0,0],"id":1,"left_children":[1,3,5,7,9,11,13,-1,-1,-1,-1,-1,-1,-1,-1],"loss_changes":[2.264706E12,7.931261E11,8.7108564E11,7.253E10,2.779691E11,4.2013295E10,3.7712665E11,0E0,0E0,0E0,0E0,0E0,0E0,0E0,0E0],"parents":[2147483647,0,0,1,1,2,2,3,3,4,4,5,5,6,6],"right_children":[2,4,6,8,10,12,14,-1,-1,-1,-1,-1,-1,-1,-1],"split_conditions":[3.3328312E4,7E0,8E0,2.9205838E4,2.8750176E4,3.817638E4,3.8448375E4,2.2854172E2,2.6074445E2,2.8210477E2,3.240322E2,2.983847E2,3.3427426E2,3.7727875E2,4.4837836E2],"split_indices":[12,0,0,12,12,12,12,0,0,0,0,0,0,0,0],"split_type":[0,0,0,0,0,0,0,0,0,0,0,0,0,0,0],"sum_hessian":[1.45351E5,9.4791E4,5.056E4,2.8217E4,6.6574E4,1.5613E4,3.4947E4,1.4408E4,1.3809E4,2.6091E4,4.0483E4,1.0784E4,4.829E3,2.4071E4,1.0876E4],"tree_param":{"num_deleted":"0","num_feature":"21","num_nodes":"15","size_leaf_vector":"1"}},{"base_weights":[3.144271E4,2.8636664E4,3.688811E4,2.4224865E4,3.0504434E4,3.0700764E4,3.9647344E4,2.2660973E2,2.589213E2,2.8111398E2,3.225779E2,2.976425E2,3.3560254E2,3.7548694E2,4.4661707E2],"categories":[],"categories_nodes":[],"categories_segments":[],"categories_sizes":[],"default_left":[0,0,0,0,0,0,0,0,0,0,0,0,0,0,0],"id":2,"left_children":[1,3,5,7,9,11,13,-1,-1,-1,-1,-1,-1,-1,-1],"loss_changes":[2.2199277E12,7.8972033E11,8.425979E11,7.38208E10,2.8185723E11,3.9833305E10,3.5800062E11,0E0,0E0,0E0,0E0,0E0,0E0,0E0,0E0],"parents":[2147483647,0,0,1,1,2,2,3,3,4,4,5,5,6,6],"right_children":[2,4,6,8,10,12,14,-1,-1,-1,-1,-1,-1,-1,-1],"split_conditions":[3.344383E4,7E0,8E0,2.928725E4,2.8998994E4,3.9046953E4,3.8737906E4,2.2660973E2,2.589213E2,2.8111398E2,3.225779E2,2.976425E2,3.3560254E2,3.7548694E2,4.4661707E2],"split_indices":[12,0,0,12,12,12,12,0,0,0,0,0,0,0,0],"split_type":[0,0,0,0,0,0,0,0,0,0,0,0,0,0,0],"sum_hessian":[1.45351E5,9.5926E4,4.9425E4,2.8536E4,6.739E4,1.5247E4,3.4178E4,1.4732E4,1.3804E4,2.8504E4,3.8886E4,1.1494E4,3.753E3,2.41E4,1.0078E4],"tree_param":{"num_deleted":"0","num_feature":"21","num_nodes":"15","size_leaf_vector":"1"}},{"base_weights":[3.11283E4,2.830174E4,3.6426934E4,2.3944662E4,3.0148076E4,3.0335086E4,3.9147598E4,2.2219038E2,2.5390433E2,2.7415182E2,3.1623935E2,2.9181375E2,3.2638666E2,3.697683E2,4.3948138E2],"categories":[],"categories_nodes":[],"categories_segments":[],"categories_sizes":[],"default_left":[0,0,0,0,0,0,0,0,0,0,0,0,0,0,0],"id":3,"left_children":[1,3,5,7,9,11,13,-1,-1,-1,-1,-1,-1,-1,-1],"loss_changes":[2.1758875E12,7.618534E11,8.368056E11,6.983516E10,2.6765532E11,4.054319E10,3.6256403E11,0E0,0E0,0E0,0E0,0E0,0E0,0E0,0E0],"parents":[2147483647,0,0,1,1,2,2,3,3,4,4,5,5,6,6],"right_children":[2,4,6,8,10,12,14,-1,-1,-1,-1,-1,-1,-1,-1],"split_conditions":[3.3328312E4,7E0,8E0,2.8831877E4,2.8441473E4,3.7919668E4,3.8448375E4,2.2219038E2,2.5390433E2,2.7415182E2,3.1623935E2,2.9181375E2,3.2638666E2,3.697683E2,4.3948138E2],"split_indices":[12,0,0,12,12,12,12,0,0,0,0,0,0,0,0],"split_type":[0,0,0,0,0,0,0,0,0,0,0,0,0,0,0],"sum_hessian":[1.45351E5,9.4791E4,5.056E4,2.8217E4,6.6574E4,1.5613E4,3.4947E4,1.2871E4,1.5346E4,2.3352E4,4.3222E4,1.0412E4,5.201E3,2.4071E4,1.0876E4],"tree_param":{"num_deleted":"0","num_feature":"21","num_nodes":"15","size_leaf_vector":"1"}},{"base_weights":[3.0817037E4,2.8066574E4,3.6154566E4,2.4195531E4,3.0113062E4,3.009021E4,3.8858953E4,2.268327E2,2.5803857E2,2.8081808E2,3.20271E2,2.917049E2,3.289844E2,3.6801163E2,4.37757E2],"categories":[],"categories_nodes":[],"categories_segments":[],"categories_sizes":[],"default_left":[0,0,0,0,0,0,0,0,0,0,0,0,0,0,0],"id":4,"left_children":[1,3,5,7,9,11,13,-1,-1,-1,-1,-1,-1,-1,-1],"loss_changes":[2.1328455E12,7.5921097E11,8.0943776E11,8.01154E10,2.4305992E11,3.842297E10,3.4419717E11,0E0,0E0,0E0,0E0,0E0,0E0,0E0,0E0],"parents":[2147483647,0,0,1,1,2,2,3,3,4,4,5,5,6,6],"right_children":[2,4,6,8,10,12,14,-1,-1,-1,-1,-1,-1,-1,-1],"split_conditions":[3.344383E4,8E0,8E0,2.9205838E4,2.9486059E4,3.9046953E4,3.8737906E4,2.268327E2,2.5803857E2,2.8081808E2,3.20271E2,2.917049E2,3.289844E2,3.6801163E2,4.37757E2],"split_indices":[12,0,0,12,12,12,12,0,0,0,0,0,0,0,0],"split_type":[0,0,0,0,0,0,0,0,0,0,0,0,0,0,0],"sum_hessian":[1.45351E5,9.5926E4,4.9425E4,3.3179E4,6.2747E4,1.5247E4,3.4178E4,1.7108E4,1.6071E4,3.0449E4,3.2298E4,1.1494E4,3.753E3,2.41E4,1.0078E4],"tree_param":{"num_deleted":"0","num_feature":"21","num_nodes":"15","size_leaf_vector":"1"}},{"base_weights":[3.0508883E4,2.7568627E4,3.5404492E4,2.3339062E4,2.9369281E4,2.9527863E4,3.803072E4,2.177005E2,2.4754509E2,2.6725632E2,3.074439E2,2.8424042E2,3.19938E2,3.5774496E2,4.261822E2],"categories":[],"categories_nodes":[],"categories_segments":[],"categories_sizes":[],"default_left":[0,0,0,0,0,0,0,0,0,0,0,0,0,0,0],"id":5,"left_children":[1,3,5,7,9,11,13,-1,-1,-1,-1,-1,-1,-1,-1],"loss_changes":[2.0912632E12,6.9096964E11,8.405679E11,5.969753E10,2.3072447E11,4.49535E10,3.885729E11,0E0,0E0,0E0,0E0,0E0,0E0,0E0,0E0],"parents":[2147483647,0,0,1,1,2,2,3,3,4,4,5,5,6,6],"right_children":[2,4,6,8,10,12,14,-1,-1,-1,-1,-1,-1,-1,-1],"split_conditions":[3.293375E4,7E0,8E0,2.8831877E4,2.8260836E4,3.7919668E4,3.7919668E4,2.177005E2,2.4754509E2,2.6725632E2,3.074439E2,2.8424042E2,3.19938E2,3.5774496E2,4.261822E2],"split_indices":[12,0,0,12,12,12,12,0,0,0,0,0,0,0,0],"split_type":[0,0,0,0,0,0,0,0,0,0,0,0,0,0,0],"sum_hessian":[1.45351E5,9.0815E4,5.4536E4,2.7122E4,6.3693E4,1.6848E4,3.7688E4,1.2871E4,1.4251E4,2.1801E4,4.1892E4,1.1647E4,5.201E3,2.5269E4,1.2419E4],"tree_param":{"num_deleted":"0","num_feature":"21","num_nodes":"15","size_leaf_vector":"1"}},{"base_weights":[3.020381E4,2.7623227E4,3.567426E4,2.3800645E4,2.9639654E4,2.965489E4,3.8343188E4,2.2227026E2,2.5382487E2,2.770823E2,3.1725104E2,2.895577E2,3.3122342E2,3.6433633E2,4.3340515E2],"categories":[],"categories_nodes":[],"categories_segments":[],"categories_sizes":[],"default_left":[0,0,0,0,0,0,0,0,0,0,0,0,0,0,0],"id":6,"left_children":[1,3,5,7,9,11,13,-1,-1,-1,-1,-1,-1,-1,-1],"loss_changes":[2.0509475E12,7.605783E11,7.4728237E11,8.434955E10,2.5954773E11,3.3743176E10,3.0637713E11,0E0,0E0,0E0,0E0,0E0,0E0,0E0,0E0],"parents":[2147483647,0,0,1,1,2,2,3,3,4,4,5,5,6,6],"right_children":[2,4,6,8,10,12,14,-1,-1,-1,-1,-1,-1,-1,-1],"split_conditions":[3.375929E4,8E0,8E0,2.9205838E4,2.980442E4,4.0539105E4,3.921688E4,2.2227026E2,2.5382487E2,2.770823E2,3.1725104E2,2.895577E2,3.3122342E2,3.6433633E2,4.3340515E2],"split_indices":[12,0,0,12,12,12,12,0,0,0,0,0,0,0,0],"split_type":[0,0,0,0,0,0,0,0,0,0,0,0,0,0,0],"sum_hessian":[1.45351E5,9.8766E4,4.6585E4,3.4112E4,6.4654E4,1.4314E4,3.2271E4,1.7108E4,1.7004E4,3.3574E4,3.108E4,1.192E4,2.394E3,2.3355E4,8.916E3],"tree_param":{"num_deleted":"0","num_feature":"21","num_nodes":"15","size_leaf_vector":"1"}},{"base_weights":[2.990179E4,2.7018553E4,3.470246E4,2.2868635E4,2.87853E4,2.8942533E4,3.7276535E4,2.1330115E2,2.4256575E2,2.6113577E2,3.010014E2,2.7858063E2,3.1365247E2,3.5062534E2,4.1778183E2],"categories":[],"categories_nodes":[],"categories_segments":[],"categories_sizes":[],"default_left":[0,0,0,0,0,0,0,0,0,0,0,0,0,0,0],"id":7,"left_children":[1,3,5,7,9,11,13,-1,-1,-1,-1,-1,-1,-1,-1],"loss_changes":[2.0109507E12,6.6519145E11,8.075084E11,5.74001E10,2.22965E11,4.3395318E10,3.7416547E11,0E0,0E0,0E0,0E0,0E0,0E0,0E0,0E0],"parents":[2147483647,0,0,1,1,2,2,3,3,4,4,5,5,6,6],"right_children":[2,4,6,8,10,12,14,-1,-1,-1,-1,-1,-1,-1,-1],"split_conditions":[3.293375E4,7E0,8E0,2.8831877E4,2.8164252E4,3.7919668E4,3.7919668E4,2.1330115E2,2.4256575E2,2.6113577E2,3.010014E2,2.7858063E2,3.1365247E2,3.5062534E2,4.1778183E2],"split_indices":[12,0,0,12,12,12,12,0,0,0,0,0,0,0,0],"split_type":[0,0,0,0,0,0,0,0,0,0,0,0,0,0,0],"sum_hessian":[1.45351E5,9.0815E4,5.4536E4,2.7122E4,6.3693E4,1.6848E4,3.7688E4,1.2871E4,1.4251E4,2.1014E4,4.2679E4,1.1647E4,5.201E3,2.5269E4,1.2419E4],"tree_param":{"num_deleted":"0","num_feature":"21","num_nodes":"15","size_leaf_vector":"1"}},{"base_weights":[2.960279E4,2.7026582E4,3.4872316E4,2.284795E4,2.8793451E4,2.90007E4,3.7485848E4,2.1415353E2,2.4532823E2,2.675871E2,3.0712955E2,2.8212347E2,3.2001242E2,3.563335E2,4.248943E2],"categories":[],"categories_nodes":[],"categories_segments":[],"categories_sizes":[],"default_left":[0,0,0,0,0,0,0,0,0,0,0,0,0,0,0],"id":8,"left_children":[1,3,5,7,9,11,13,-1,-1,-1,-1,-1,-1,-1,-1],"loss_changes":[1.9722792E12,7.201452E11,7.312685E11,6.9516394E10,2.67152E11,3.3878442E10,3.045568E11,0E0,0E0,0E0,0E0,0E0,0E0,0E0,0E0],"parents":[2147483647,0,0,1,1,2,2,3,3,4,4,5,5,6,6],"right_children":[2,4,6,8,10,12,14,-1,-1,-1,-1,-1,-1,-1,-1],"split_conditions":[3.3632348E4,7E0,8E0,2.9525895E4,2.9486059E4,3.973352E4,3.921688E4,2.1415353E2,2.4532823E2,2.675871E2,3.0712955E2,2.8212347E2,3.2001242E2,3.563335E2,4.248943E2],"split_indices":[12,0,0,12,12,12,12,0,0,0,0,0,0,0,0],"split_type":[0,0,0,0,0,0,0,0,0,0,0,0,0,0,0],"sum_hessian":[1.45351E5,9.7628E4,4.7723E4,2.9017E4,6.8611E4,1.4703E4,3.302E4,1.569E4,1.3327E4,3.3313E4,3.5298E4,1.1652E4,3.051E3,2.4104E4,8.916E3],"tree_param":{"num_deleted":"0","num_feature":"21","num_nodes":"15","size_leaf_vector":"1"}},{"base_weights":[2.9306777E4,2.6455738E4,3.3975523E4,2.2392453E4,2.8185201E4,2.833969E4,3.6497902E4,2.0902693E2,2.3753003E2,2.5584879E2,2.9476825E2,2.7279553E2,3.0747363E2,3.4337924E2,4.0954913E2],"categories":[],"categories_nodes":[],"categories_segments":[],"categories_sizes":[],"default_left":[0,0,0,0,0,0,0,0,0,0,0,0,0,0,0],"id":9,"left_children":[1,3,5,7,9,11,13,-1,-1,-1,-1,-1,-1,-1,-1],"loss_changes":[1.933851E12,6.335664E11,7.823216E11,5.4127493E10,2.118501E11,4.2660266E10,3.6503447E11,0E0,0E0,0E0,0E0,0E0,0E0,0E0,0E0],"parents":[2147483647,0,0,1,1,2,2,3,3,4,4,5,5,6,6],"right_children":[2,4,6,8,10,12,14,-1,-1,-1,-1,-1,-1,-1,-1],"split_conditions":[3.287633E4,7E0,8E0,2.8831877E4,2.8164252E4,3.7919668E4,3.7919668E4,2.0902693E2,2.3753003E2,2.5584879E2,2.9476825E2,2.7279553E2,3.0747363E2,3.4337924E2,4.0954913E2],"split_indices":[12,0,0,12,12,12,12,0,0,0,0,0,0,0,0],"split_type":[0,0,0,0,0,0,0,0,0,0,0,0,0,0,0],"sum_hessian":[1.45351E5,9.0247E4,5.5104E4,2.6948E4,6.3299E4,1.7041E4,3.8063E4,1.2871E4,1.4077E4,2.1014E4,4.2285E4,1.184E4,5.201E3,2.5644E4,1.2419E4],"tree_param":{"num_deleted":"0","num_feature":"21","num_nodes":"15","size_leaf_vector":"1"}},{"base_weights":[2.9013725E4,2.6531852E4,3.4274926E4,2.2852062E4,2.8472955E4,2.8491525E4,3.6839223E4,2.1572449E2,2.465714E2,2.6608502E2,3.04861E2,2.7814294E2,3.1850513E2,3.4999017E2,4.1655078E2],"categories":[],"categories_nodes":[],"categories_segments":[],"categories_sizes":[],"default_left":[0,0,0,0,0,0,0,0,0,0,0,0,0,0,0],"id":10,"left_children":[1,3,5,7,9,11,13,-1,-1,-1,-1,-1,-1,-1,-1],"loss_changes":[1.8970501E12,7.048234E11,6.898372E11,7.826152E10,2.4186873E11,3.167748E10,2.8454158E11,0E0,0E0,0E0,0E0,0E0,0E0,0E0,0E0],"parents":[2147483647,0,0,1,1,2,2,3,3,4,4,5,5,6,6],"right_children":[2,4,6,8,10,12,14,-1,-1,-1,-1,-1,-1,-1,-1],"split_conditions":[3.375929E4,8E0,8E0,2.984295E4,2.980442E4,4.0539105E4,3.921688E4,2.1572449E2,2.465714E2,2.6608502E2,3.04861E2,2.7814294E2,3.1850513E2,3.4999017E2,4.1655078E2],"split_indices":[12,0,0,12,12,12,12,0,0,0,0,0,0,0,0],"split_type":[0,0,0,0,0,0,0,0,0,0,0,0,0,0,0],"sum_hessian":[1.45351E5,9.8766E4,4.6585E4,3.4112E4,6.4654E4,1.4314E4,3.2271E4,1.9969E4,1.4143E4,3.3574E4,3.108E4,1.192E4,2.394E3,2.3355E4,8.916E3],"tree_param":{"num_deleted":"0","num_feature":"21","num_nodes":"15","size_leaf_vector":"1"}},{"base_weights":[2.8723604E4,2.635383E4,3.412568E4,2.2692416E4,2.8282912E4,2.8340861E4,3.66746E4,2.137049E2,2.450065E2,2.6496667E2,3.0459167E2,2.765376E2,3.153214E2,3.4977872E2,4.1716205E2],"categories":[],"categories_nodes":[],"categories_segments":[],"categories_sizes":[],"default_left":[0,0,0,0,0,0,0,0,0,0,0,0,0,0,0],"id":11,"left_children":[1,3,5,7,9,11,13,-1,-1,-1,-1,-1,-1,-1,-1],"loss_changes":[1.8598634E12,7.1298974E11,6.524156E11,8.282492E10,2.5641039E11,2.8858909E10,2.6166166E11,0E0,0E0,0E0,0E0,0E0,0E0,0E0,0E0],"parents":[2147483647,0,0,1,1,2,2,3,3,4,4,5,5,6,6],"right_children":[2,4,6,8,10,12,14,-1,-1,-1,-1,-1,-1,-1,-1],"split_conditions":[3.4019285E4,8E0,8E0,2.9885545E4,3.0095748E4,4.0539105E4,3.973352E4,2.137049E2,2.450065E2,2.6496667E2,3.0459167E2,2.765376E2,3.153214E2,3.4977872E2,4.1716205E2],"split_indices":[12,0,0,12,12,12,12,0,0,0,0,0,0,0,0],"split_type":[0,0,0,0,0,0,0,0,0,0,0,0,0,0,0],"sum_hessian":[1.45351E5,1.01035E5,4.4316E4,3.4868E4,6.6167E4,1.3558E4,3.0758E4,2.015E4,1.4718E4,3.6347E4,2.982E4,1.1164E4,2.394E3,2.3019E4,7.739E3],"tree_param":{"num_deleted":"0","num_feature":"21","num_nodes":"15","size_leaf_vector":"1"}},{"base_weights":[2.8436385E4,2.5666938E4,3.297152E4,2.1716205E4,2.7348494E4,2.7502057E4,3.541944E4,2.022609E2,2.3008931E2,2.4579578E2,2.850793E2,2.6468692E2,2.984895E2,3.3317883E2,3.9755914E2],"categories":[],"categories_nodes":[],"categories_segments":[],"categories_sizes":[],"default_left":[0,0,0,0,0,0,0,0,0,0,0,0,0,0,0],"id":12,"left_children":[1,3,5,7,9,11,13,-1,-1,-1,-1,-1,-1,-1,-1],"loss_changes":[1.8247571E12,5.989592E11,7.368176E11,5.1447333E10,2.0251358E11,4.0540045E10,3.455687E11,0E0,0E0,0E0,0E0,0E0,0E0,0E0,0E0],"parents":[2147483647,0,0,1,1,2,2,3,3,4,4,5,5,6,6],"right_children":[2,4,6,8,10,12,14,-1,-1,-1,-1,-1,-1,-1,-1],"split_conditions":[3.287633E4,7E0,8E0,2.8750176E4,2.7882932E4,3.7919668E4,3.7919668E4,2.022609E2,2.3008931E2,2.4579578E2,2.850793E2,2.6468692E2,2.984895E2,3.3317883E2,3.9755914E2],"split_indices":[12,0,0,12,12,12,12,0,0,0,0,0,0,0,0],"split_type":[0,0,0,0,0,0,0,0,0,0,0,0,0,0,0],"sum_hessian":[1.45351E5,9.0247E4,5.5104E4,2.6948E4,6.3299E4,1.7041E4,3.8063E4,1.2526E4,1.4422E4,1.8689E4,4.461E4,1.184E4,5.201E3,2.5644E4,1.2419E4],"tree_param":{"num_deleted":"0","num_feature":"21","num_nodes":"15","size_leaf_vector":"1"}},{"base_weights":[2.8152037E4,2.5827834E4,3.345023E4,2.223715E4,2.771965E4,2.7779863E4,3.594872E4,2.093944E2,2.4012267E2,2.596474E2,2.9857733E2,2.7163336E2,3.1231842E2,3.4338635E2,4.1078406E2],"categories":[],"categories_nodes":[],"categories_segments":[],"categories_sizes":[],"default_left":[0,0,0,0,0,0,0,0,0,0,0,0,0,0,0],"id":13,"left_children":[1,3,5,7,9,11,13,-1,-1,-1,-1,-1,-1,-1,-1],"loss_changes":[1.7890049E12,6.857142E11,6.268555E11,7.98197E10,2.474933E11,2.8008514E10,2.5263551E11,0E0,0E0,0E0,0E0,0E0,0E0,0E0,0E0],"parents":[2147483647,0,0,1,1,2,2,3,3,4,4,5,5,6,6],"right_children":[2,4,6,8,10,12,14,-1,-1,-1,-1,-1,-1,-1,-1],"split_conditions":[3.4019285E4,8E0,8E0,2.9885545E4,3.0095748E4,4.1004895E4,3.9917293E4,2.093944E2,2.4012267E2,2.596474E2,2.9857733E2,2.7163336E2,3.1231842E2,3.4338635E2,4.1078406E2],"split_indices":[12,0,0,12,12,12,12,0,0,0,0,0,0,0,0],"split_type":[0,0,0,0,0,0,0,0,0,0,0,0,0,0,0],"sum_hessian":[1.45351E5,1.01035E5,4.4316E4,3.4868E4,6.6167E4,1.3558E4,3.0758E4,2.015E4,1.4718E4,3.6347E4,2.982E4,1.1511E4,2.047E3,2.3416E4,7.342E3],"tree_param":{"num_deleted":"0","num_feature":"21","num_nodes":"15","size_leaf_vector":"1"}},{"base_weights":[2.7870533E4,2.5108977E4,3.2245629E4,2.124355E4,2.6755916E4,2.6909186E4,3.463695E4,1.9715454E2,2.2430176E2,2.3864363E2,2.7814508E2,2.5903934E2,2.9262927E2,3.2595856E2,3.8975186E2],"categories":[],"categories_nodes":[],"categories_segments":[],"categories_sizes":[],"default_left":[0,0,0,0,0,0,0,0,0,0,0,0,0,0,0],"id":14,"left_children":[1,3,5,7,9,11,13,-1,-1,-1,-1,-1,-1,-1,-1],"loss_changes":[1.7553498E12,5.6673016E11,7.167646E11,4.7843377E10,1.9059756E11,4.0430993E10,3.4259495E11,0E0,0E0,0E0,0E0,0E0,0E0,0E0,0E0],"parents":[2147483647,0,0,1,1,2,2,3,3,4,4,5,5,6,6],"right_children":[2,4,6,8,10,12,14,-1,-1,-1,-1,-1,-1,-1,-1],"split_conditions":[3.2765223E4,7E0,8E0,2.8530012E4,2.7635062E4,3.7919668E4,3.7919668E4,1.9715454E2,2.2430176E2,2.3864363E2,2.7814508E2,2.5903934E2,2.9262927E2,3.2595856E2,3.8975186E2],"split_indices":[12,0,0,12,12,12,12,0,0,0,0,0,0,0,0],"split_type":[0,0,0,0,0,0,0,0,0,0,0,0,0,0,0],"sum_hessian":[1.45351E5,8.9111E4,5.624E4,2.6628E4,6.2483E4,1.7407E4,3.8833E4,1.1647E4,1.4981E4,1.6751E4,4.5732E4,1.2206E4,5.201E3,2.6414E4,1.2419E4],"tree_param":{"num_deleted":"0","num_feature":"21","num_nodes":"15","size_leaf_vector":"1"}},{"base_weights":[2.7591842E4,2.53122E4,3.278846E4,2.1790998E4,2.7167406E4,2.7230203E4,3.523755E4,2.0554892E2,2.358878E2,2.540187E2,2.9219125E2,2.6623508E2,3.0627188E2,3.365549E2,4.027798E2],"categories":[],"categories_nodes":[],"categories_segments":[],"categories_sizes":[],"default_left":[0,0,0,0,0,0,0,0,0,0,0,0,0,0,0],"id":15,"left_children":[1,3,5,7,9,11,13,-1,-1,-1,-1,-1,-1,-1,-1],"loss_changes":[1.7210739E12,6.594285E11,6.0231044E11,7.700218E10,2.389453E11,2.7129807E10,2.4392394E11,0E0,0E0,0E0,0E0,0E0,0E0,0E0,0E0],"parents":[2147483647,0,0,1,1,2,2,3,3,4,4,5,5,6,6],"right_children":[2,4,6,8,10,12,14,-1,-1,-1,-1,-1,-1,-1,-1],"split_conditions":[3.4019285E4,8E0,8E0,3.0009246E4,3.0009246E4,4.1004895E4,3.9917293E4,2.0554892E2,2.358878E2,2.540187E2,2.9219125E2,2.6623508E2,3.0627188E2,3.365549E2,4.027798E2],"split_indices":[12,0,0,12,12,12,12,0,0,0,0,0,0,0,0],"split_type":[0,0,0,0,0,0,0,0,0,0,0,0,0,0,0],"sum_hessian":[1.45351E5,1.01035E5,4.4316E4,3.4868E4,6.6167E4,1.3558E4,3.0758E4,2.0669E4,1.4199E4,3.5571E4,3.0596E4,1.1511E4,2.047E3,2.3416E4,7.342E3],"tree_param":{"num_deleted":"0","num_feature":"21","num_nodes":"15","size_leaf_vector":"1"}},{"base_weights":[2.731594E4,2.4585486E4,3.1572443E4,2.079674E4,2.6200514E4,2.6354557E4,3.39107E4,1.9312787E2,2.1961356E2,2.3376964E2,2.724333E2,2.5371756E2,2.8688416E2,3.1917096E2,3.8209787E2],"categories":[],"categories_nodes":[],"categories_segments":[],"categories_sizes":[],"default_left":[0,0,0,0,0,0,0,0,0,0,0,0,0,0,0],"id":16,"left_children":[1,3,5,7,9,11,13,-1,-1,-1,-1,-1,-1,-1,-1],"loss_changes":[1.6885345E12,5.413043E11,6.920979E11,4.5325746E10,1.8216282E11,3.9597375E10,3.3491517E11,0E0,0E0,0E0,0E0,0E0,0E0,0E0,0E0],"parents":[2147483647,0,0,1,1,2,2,3,3,4,4,5,5,6,6],"right_children":[2,4,6,8,10,12,14,-1,-1,-1,-1,-1,-1,-1,-1],"split_conditions":[3.2711016E4,7E0,8E0,2.8530012E4,2.7635062E4,3.7919668E4,3.7919668E4,1.9312787E2,2.1961356E2,2.3376964E2,2.724333E2,2.5371756E2,2.8688416E2,3.1917096E2,3.8209787E2],"split_indices":[12,0,0,12,12,12,12,0,0,0,0,0,0,0,0],"split_type":[0,0,0,0,0,0,0,0,0,0,0,0,0,0,0],"sum_hessian":[1.45351E5,8.8553E4,5.6798E4,2.647E4,6.2083E4,1.758E4,3.9218E4,1.1647E4,1.4823E4,1.6751E4,4.5332E4,1.2379E4,5.201E3,2.6799E4,1.2419E4],"tree_param":{"num_deleted":"0","num_feature":"21","num_nodes":"15","size_leaf_vector":"1"}},{"base_weights":[2.7042795E4,2.480679E4,3.213994E4,2.0953078E4,2.6437703E4,2.6691521E4,3.4540633E4,1.9530824E2,2.2505806E2,2.4551253E2,2.8352374E2,2.6094513E2,3.0034323E2,3.3097937E2,3.9885443E2],"categories":[],"categories_nodes":[],"categories_segments":[],"categories_sizes":[],"default_left":[0,0,0,0,0,0,0,0,0,0,0,0,0,0,0],"id":17,"left_children":[1,3,5,7,9,11,13,-1,-1,-1,-1,-1,-1,-1,-1],"loss_changes":[1.655819E12,6.34464E11,5.7874265E11,6.591978E10,2.5570994E11,2.6275217E10,2.3586249E11,0E0,0E0,0E0,0E0,0E0,0E0,0E0,0E0],"parents":[2147483647,0,0,1,1,2,2,3,3,4,4,5,5,6,6],"right_children":[2,4,6,8,10,12,14,-1,-1,-1,-1,-1,-1,-1,-1],"split_conditions":[3.4019285E4,7E0,8E0,2.9525895E4,2.9719262E4,4.1004895E4,4.0322645E4,1.9530824E2,2.2505806E2,2.4551253E2,2.8352374E2,2.6094513E2,3.0034323E2,3.3097937E2,3.9885443E2],"split_indices":[12,0,0,12,12,12,12,0,0,0,0,0,0,0,0],"split_type":[0,0,0,0,0,0,0,0,0,0,0,0,0,0,0],"sum_hessian":[1.45351E5,1.01035E5,4.4316E4,3.0048E4,7.0987E4,1.3558E4,3.0758E4,1.569E4,1.4358E4,3.5764E4,3.5223E4,1.1511E4,2.047E3,2.4226E4,6.532E3],"tree_param":{"num_deleted":"0","num_feature":"21","num_nodes":"15","size_leaf_vector":"1"}},{"base_weights":[2.6772383E4,2.409422E4,3.0947371E4,2.0381371E4,2.5676895E4,2.583226E4,3.323957E4,1.8924385E2,2.1524828E2,2.281179E2,2.6672815E2,2.4659575E2,2.772573E2,3.128195E2,3.7461075E2],"categories":[],"categories_nodes":[],"categories_segments":[],"categories_sizes":[],"default_left":[0,0,0,0,0,0,0,0,0,0,0,0,0,0,0],"id":18,"left_children":[1,3,5,7,9,11,13,-1,-1,-1,-1,-1,-1,-1,-1],"loss_changes":[1.6244791E12,5.1984204E11,6.651034E11,4.369416E10,1.7654245E11,3.8354813E10,3.2293624E11,0E0,0E0,0E0,0E0,0E0,0E0,0E0,0E0],"parents":[2147483647,0,0,1,1,2,2,3,3,4,4,5,5,6,6],"right_children":[2,4,6,8,10,12,14,-1,-1,-1,-1,-1,-1,-1,-1],"split_conditions":[3.2711016E4,7E0,8E0,2.8530012E4,2.7530674E4,3.694611E4,3.7919668E4,1.8924385E2,2.1524828E2,2.281179E2,2.6672815E2,2.4659575E2,2.772573E2,3.128195E2,3.7461075E2],"split_indices":[12,0,0,12,12,12,12,0,0,0,0,0,0,0,0],"split_type":[0,0,0,0,0,0,0,0,0,0,0,0,0,0,0],"sum_hessian":[1.45351E5,8.8553E4,5.6798E4,2.647E4,6.2083E4,1.758E4,3.9218E4,1.1647E4,1.4823E4,1.602E4,4.6063E4,1.0865E4,6.715E3,2.6799E4,1.2419E4],"tree_param":{"num_deleted":"0","num_feature":"21","num_nodes":"15","size_leaf_vector":"1"}},{"base_weights":[2.6504674E4,2.408599E4,3.1038705E4,2.0744588E4,2.5854666E4,2.584733E4,3.335721E4,1.9331287E2,2.201988E2,2.3803719E2,2.7290082E2,2.5044897E2,2.8375778E2,3.1675165E2,3.798043E2],"categories":[],"categories_nodes":[],"categories_segments":[],"categories_sizes":[],"default_left":[0,0,0,0,0,0,0,0,0,0,0,0,0,0,0],"id":19,"left_children":[1,3,5,7,9,11,13,-1,-1,-1,-1,-1,-1,-1,-1],"loss_changes":[1.5932399E12,5.5967115E11,6.076959E11,5.871711E10,1.818105E11,3.0969692E10,2.7057455E11,0E0,0E0,0E0,0E0,0E0,0E0,0E0,0E0],"parents":[2147483647,0,0,1,1,2,2,3,3,4,4,5,5,6,6],"right_children":[2,4,6,8,10,12,14,-1,-1,-1,-1,-1,-1,-1,-1],"split_conditions":[3.3328312E4,8E0,8E0,2.8873852E4,2.8956846E4,3.9046953E4,3.9046953E4,1.9331287E2,2.201988E2,2.3803719E2,2.7290082E2,2.5044897E2,2.8375778E2,3.1675165E2,3.798043E2],"split_indices":[12,0,0,12,12,12,12,0,0,0,0,0,0,0,0],"split_type":[0,0,0,0,0,0,0,0,0,0,0,0,0,0,0],"sum_hessian":[1.45351E5,9.4791E4,5.056E4,3.2813E4,6.1978E4,1.5613E4,3.4947E4,1.5572E4,1.7241E4,2.5525E4,3.6453E4,1.186E4,3.753E3,2.563E4,9.317E3],"tree_param":{"num_deleted":"0","num_feature":"21","num_nodes":"15","size_leaf_vector":"1"}},{"base_weights":[2.623964E4,2.4067361E4,3.1191518E4,2.0324307E4,2.5651445E4,2.6231248E4,3.3681523E4,1.894177E2,2.1833678E2,2.3814621E2,2.751575E2,2.5599208E2,2.9342166E2,3.139313E2,3.706522E2],"categories":[],"categories_nodes":[],"categories_segments":[],"categories_sizes":[],"default_left":[0,0,0,0,0,0,0,0,0,0,0,0,0,0,0],"id":20,"left_children":[1,3,5,7,9,11,13,-1,-1,-1,-1,-1,-1,-1,-1],"loss_changes":[1.5627893E12,5.9854815E11,5.4648006E11,6.2291706E10,2.4243916E11,2.8380758E10,2.2727675E11,0E0,0E0,0E0,0E0,0E0,0E0,0E0,0E0],"parents":[2147483647,0,0,1,1,2,2,3,3,4,4,5,5,6,6],"right_children":[2,4,6,8,10,12,14,-1,-1,-1,-1,-1,-1,-1,-1],"split_conditions":[3.4019285E4,7E0,9E0,2.9525895E4,2.9719262E4,7E0,6.3045654E3,1.894177E2,2.1833678E2,2.3814621E2,2.751575E2,2.5599208E2,2.9342166E2,3.139313E2,3.706522E2],"split_indices":[12,0,0,12,12,0,9,0,0,0,0,0,0,0,0],"split_type":[0,0,0,0,0,0,0,0,0,0,0,0,0,0,0],"sum_hessian":[1.45351E5,1.01035E5,4.4316E4,3.0048E4,7.0987E4,1.4815E4,2.9501E4,1.569E4,1.4358E4,3.5764E4,3.5223E4,1.2321E4,2.494E3,1.7605E4,1.1896E4],"tree_param":{"num_deleted":"0","num_feature":"21","num_nodes":"15","size_leaf_vector":"1"}},{"base_weights":[2.597726E4,2.3375428E4,3.0033258E4,1.9769447E4,2.4912547E4,2.5068373E4,3.2258139E4,1.8352458E2,2.0881517E2,2.2112433E2,2.5885883E2,2.384031E2,2.680074E2,3.0259875E2,3.6187964E2],"categories":[],"categories_nodes":[],"categories_segments":[],"categories_sizes":[],"default_left":[0,0,0,0,0,0,0,0,0,0,0,0,0,0,0],"id":21,"left_children":[1,3,5,7,9,11,13,-1,-1,-1,-1,-1,-1,-1,-1],"loss_changes":[1.5331943E12,4.903435E11,6.2661224E11,4.1329623E10,1.6863619E11,3.6764123E10,3.0688464E11,0E0,0E0,0E0,0E0,0E0,0E0,0E0,0E0],"parents":[2147483647,0,0,1,1,2,2,3,3,4,4,5,5,6,6],"right_children":[2,4,6,8,10,12,14,-1,-1,-1,-1,-1,-1,-1,-1],"split_conditions":[3.2711016E4,7E0,8E0,2.8530012E4,2.7530674E4,3.666346E4,3.7681984E4,1.8352458E2,2.0881517E2,2.2112433E2,2.5885883E2,2.384031E2,2.680074E2,3.0259875E2,3.6187964E2],"split_indices":[12,0,0,12,12,12,12,0,0,0,0,0,0,0,0],"split_type":[0,0,0,0,0,0,0,0,0,0,0,0,0,0,0],"sum_hessian":[1.45351E5,8.8553E4,5.6798E4,2.647E4,6.2083E4,1.758E4,3.9218E4,1.1647E4,1.4823E4,1.602E4,4.6063E4,1.0296E4,7.284E3,2.6004E4,1.3214E4],"tree_param":{"num_deleted":"0","num_feature":"21","num_nodes":"15","size_leaf_vector":"1"}},{"base_weights":[2.5717502E4,2.3587002E4,3.0574135E4,2.0294494E4,2.532172E4,2.5709092E4,3.301634E4,1.914255E2,2.2005556E2,2.3716394E2,2.732585E2,2.5088664E2,2.8762872E2,3.0761603E2,3.635028E2],"categories":[],"categories_nodes":[],"categories_segments":[],"categories_sizes":[],"default_left":[0,0,0,0,0,0,0,0,0,0,0,0,0,0,0],"id":22,"left_children":[1,3,5,7,9,11,13,-1,-1,-1,-1,-1,-1,-1,-1],"loss_changes":[1.5032386E12,5.765658E11,5.2570148E11,6.8307386E10,2.1223178E11,2.734896E10,2.2065394E11,0E0,0E0,0E0,0E0,0E0,0E0,0E0,0E0],"parents":[2147483647,0,0,1,1,2,2,3,3,4,4,5,5,6,6],"right_children":[2,4,6,8,10,12,14,-1,-1,-1,-1,-1,-1,-1,-1],"split_conditions":[3.4019285E4,8E0,9E0,3.0053404E4,3.0138965E4,7E0,6.3045654E3,1.914255E2,2.2005556E2,2.3716394E2,2.732585E2,2.5088664E2,2.8762872E2,3.0761603E2,3.635028E2],"split_indices":[12,0,0,12,12,0,9,0,0,0,0,0,0,0,0],"split_type":[0,0,0,0,0,0,0,0,0,0,0,0,0,0,0],"sum_hessian":[1.45351E5,1.01035E5,4.4316E4,3.4868E4,6.6167E4,1.4815E4,2.9501E4,2.0846E4,1.4022E4,3.6746E4,2.9421E4,1.2321E4,2.494E3,1.7605E4,1.1896E4],"tree_param":{"num_deleted":"0","num_feature":"21","num_nodes":"15","size_leaf_vector":"1"}},{"base_weights":[2.5460342E4,2.2737344E4,2.9188053E4,1.924532E4,2.423725E4,2.4403246E4,3.1330883E4,1.7863702E2,2.0240932E2,2.1476552E2,2.5140097E2,2.323292E2,2.6279163E2,2.9364847E2,3.5312668E2],"categories":[],"categories_nodes":[],"categories_segments":[],"categories_sizes":[],"default_left":[0,0,0,0,0,0,0,0,0,0,0,0,0,0,0],"id":23,"left_children":[1,3,5,7,9,11,13,-1,-1,-1,-1,-1,-1,-1,-1],"loss_changes":[1.4747425E12,4.3950014E11,6.282858E11,3.4362884E10,1.4591145E11,4.1063285E10,3.3066634E11,0E0,0E0,0E0,0E0,0E0,0E0,0E0,0E0],"parents":[2147483647,0,0,1,1,2,2,3,3,4,4,5,5,6,6],"right_children":[2,4,6,8,10,12,14,-1,-1,-1,-1,-1,-1,-1,-1],"split_conditions":[3.2295373E4,7E0,8E0,2.8260836E4,2.7323107E4,3.666346E4,3.7455117E4,1.7863702E2,2.0240932E2,2.1476552E2,2.5140097E2,2.323292E2,2.6279163E2,2.9364847E2,3.5312668E2],"split_indices":[12,0,0,12,12,12,12,0,0,0,0,0,0,0,0],"split_type":[0,0,0,0,0,0,0,0,0,0,0,0,0,0,0],"sum_hessian":[1.45351E5,8.3999E4,6.1352E4,2.5243E4,5.8756E4,1.8981E4,4.2371E4,1.058E4,1.4663E4,1.4486E4,4.427E4,1.1697E4,7.284E3,2.8371E4,1.4E4],"tree_param":{"num_deleted":"0","num_feature":"21","num_nodes":"15","size_leaf_vector":"1"}},{"base_weights":[2.5205752E4,2.317303E4,3.0105404E4,1.9929484E4,2.487801E4,2.5285334E4,3.251998E4,1.8828133E2,2.1719173E2,2.3369322E2,2.7016537E2,2.468116E2,2.826307E2,3.0129468E2,3.5543393E2],"categories":[],"categories_nodes":[],"categories_segments":[],"categories_sizes":[],"default_left":[0,0,0,0,0,0,0,0,0,0,0,0,0,0,0],"id":24,"left_children":[1,3,5,7,9,11,13,-1,-1,-1,-1,-1,-1,-1,-1],"loss_changes":[1.4469594E12,5.676487E11,4.9517534E11,6.937169E10,2.1661483E11,2.4899486E10,2.0412E11,0E0,0E0,0E0,0E0,0E0,0E0,0E0,0E0],"parents":[2147483647,0,0,1,1,2,2,3,3,4,4,5,5,6,6],"right_children":[2,4,6,8,10,12,14,-1,-1,-1,-1,-1,-1,-1,-1],"split_conditions":[3.421496E4,8E0,9E0,3.0307908E4,3.0439082E4,7E0,6.1585425E3,1.8828133E2,2.1719173E2,2.3369322E2,2.7016537E2,2.468116E2,2.826307E2,3.0129468E2,3.5543393E2],"split_indices":[12,0,0,12,12,0,9,0,0,0,0,0,0,0,0],"split_type":[0,0,0,0,0,0,0,0,0,0,0,0,0,0,0],"sum_hessian":[1.45351E5,1.02735E5,4.2616E4,3.5401E4,6.7334E4,1.4227E4,2.8389E4,2.1922E4,1.3479E4,3.9488E4,2.7846E4,1.1835E4,2.392E3,1.586E4,1.2529E4],"tree_param":{"num_deleted":"0","num_feature":"21","num_nodes":"15","size_leaf_vector":"1"}},{"base_weights":[2.4953709E4,2.2450586E4,2.8855828E4,1.8979762E4,2.3930094E4,2.408483E4,3.0993824E4,1.7608476E2,2.0055972E2,2.1293146E2,2.4904001E2,2.31597E2,2.628187E2,2.930989E2,3.5378925E2],"categories":[],"categories_nodes":[],"categories_segments":[],"categories_sizes":[],"default_left":[0,0,0,0,0,0,0,0,0,0,0,0,0,0,0],"id":25,"left_children":[1,3,5,7,9,11,13,-1,-1,-1,-1,-1,-1,-1,-1],"loss_changes":[1.4190756E12,4.5428087E11,5.78621E11,3.8712377E10,1.589096E11,3.5126247E10,2.885681E11,0E0,0E0,0E0,0E0,0E0,0E0,0E0,0E0],"parents":[2147483647,0,0,1,1,2,2,3,3,4,4,5,5,6,6],"right_children":[2,4,6,8,10,12,14,-1,-1,-1,-1,-1,-1,-1,-1],"split_conditions":[3.2711016E4,7E0,8E0,2.8530012E4,2.7635062E4,3.7919668E4,3.8448375E4,1.7608476E2,2.0055972E2,2.1293146E2,2.4904001E2,2.31597E2,2.628187E2,2.930989E2,3.5378925E2],"split_indices":[12,0,0,12,12,12,12,0,0,0,0,0,0,0,0],"split_type":[0,0,0,0,0,0,0,0,0,0,0,0,0,0,0],"sum_hessian":[1.45351E5,8.8553E4,5.6798E4,2.647E4,6.2083E4,1.758E4,3.9218E4,1.1647E4,1.4823E4,1.6751E4,4.5332E4,1.2379E4,5.201E3,2.8342E4,1.0876E4],"tree_param":{"num_deleted":"0","num_feature":"21","num_nodes":"15","size_leaf_vector":"1"}},{"base_weights":[2.4704186E4,2.2710068E4,2.9510783E4,1.9529559E4,2.4381914E4,2.4783148E4,3.1879057E4,1.8376985E2,2.1178922E2,2.2918147E2,2.650807E2,2.4190001E2,2.770655E2,2.972699E2,3.514221E2],"categories":[],"categories_nodes":[],"categories_segments":[],"categories_sizes":[],"default_left":[0,0,0,0,0,0,0,0,0,0,0,0,0,0,0],"id":26,"left_children":[1,3,5,7,9,11,13,-1,-1,-1,-1,-1,-1,-1,-1],"loss_changes":[1.3925173E12,5.4580478E11,4.7636388E11,6.6909635E10,2.0894764E11,2.400138E10,1.9832557E11,0E0,0E0,0E0,0E0,0E0,0E0,0E0,0E0],"parents":[2147483647,0,0,1,1,2,2,3,3,4,4,5,5,6,6],"right_children":[2,4,6,8,10,12,14,-1,-1,-1,-1,-1,-1,-1,-1],"split_conditions":[3.421496E4,8E0,9E0,3.0053404E4,3.0480557E4,7E0,6.3943306E3,1.8376985E2,2.1178922E2,2.2918147E2,2.650807E2,2.4190001E2,2.770655E2,2.972699E2,3.514221E2],"split_indices":[12,0,0,12,12,0,9,0,0,0,0,0,0,0,0],"split_type":[0,0,0,0,0,0,0,0,0,0,0,0,0,0,0],"sum_hessian":[1.45351E5,1.02735E5,4.2616E4,3.5401E4,6.7334E4,1.4227E4,2.8389E4,2.0846E4,1.4555E4,3.9886E4,2.7448E4,1.1835E4,2.392E3,1.7113E4,1.1276E4],"tree_param":{"num_deleted":"0","num_feature":"21","num_nodes":"15","size_leaf_vector":"1"}},{"base_weights":[2.4457156E4,2.1836807E4,2.804435E4,1.8475662E4,2.3280496E4,2.3446553E4,3.0103428E4,1.7136998E2,1.9440334E2,2.0596292E2,2.4158333E2,2.2309865E2,2.526859E2,2.820189E2,3.3954602E2],"categories":[],"categories_nodes":[],"categories_segments":[],"categories_sizes":[],"default_left":[0,0,0,0,0,0,0,0,0,0,0,0,0,0,0],"id":27,"left_children":[1,3,5,7,9,11,13,-1,-1,-1,-1,-1,-1,-1,-1],"loss_changes":[1.3656486E12,4.0717464E11,5.8013516E11,3.226678E10,1.3795066E11,3.8749078E10,3.093383E11,0E0,0E0,0E0,0E0,0E0,0E0,0E0,0E0],"parents":[2147483647,0,0,1,1,2,2,3,3,4,4,5,5,6,6],"right_children":[2,4,6,8,10,12,14,-1,-1,-1,-1,-1,-1,-1,-1],"split_conditions":[3.2295373E4,7E0,8E0,2.8260836E4,2.7323107E4,3.666346E4,3.7455117E4,1.7136998E2,1.9440334E2,2.0596292E2,2.4158333E2,2.2309865E2,2.526859E2,2.820189E2,3.3954602E2],"split_indices":[12,0,0,12,12,12,12,0,0,0,0,0,0,0,0],"split_type":[0,0,0,0,0,0,0,0,0,0,0,0,0,0,0],"sum_hessian":[1.45351E5,8.3999E4,6.1352E4,2.5243E4,5.8756E4,1.8981E4,4.2371E4,1.058E4,1.4663E4,1.4486E4,4.427E4,1.1697E4,7.284E3,2.8371E4,1.4E4],"tree_param":{"num_deleted":"0","num_feature":"21","num_nodes":"15","size_leaf_vector":"1"}},{"base_weights":[2.4212598E4,2.2348924E4,2.9162658E4,1.8853727E4,2.382576E4,2.4439072E4,3.1506729E4,1.7687077E2,2.0560931E2,2.2274318E2,2.594112E2,2.3516313E2,2.6197714E2,2.9309146E2,3.45801E2],"categories":[],"categories_nodes":[],"categories_segments":[],"categories_sizes":[],"default_left":[0,0,0,0,0,0,0,0,0,0,0,0,0,0,0],"id":28,"left_children":[1,3,5,7,9,11,13,-1,-1,-1,-1,-1,-1,-1,-1],"loss_changes":[1.3402647E12,5.4463457E11,4.393932E11,6.211869E10,2.4303475E11,2.0787495E10,1.7840472E11,0E0,0E0,0E0,0E0,0E0,0E0,0E0,0E0],"parents":[2147483647,0,0,1,1,2,2,3,3,4,4,5,5,6,6],"right_children":[2,4,6,8,10,12,14,-1,-1,-1,-1,-1,-1,-1,-1],"split_conditions":[3.455689E4,7E0,9E0,3.0307908E4,3.0439082E4,2.7281126E-1,6.3943306E3,1.7687077E2,2.0560931E2,2.2274318E2,2.594112E2,2.3516313E2,2.6197714E2,2.9309146E2,3.45801E2],"split_indices":[12,0,0,12,12,17,9,0,0,0,0,0,0,0,0],"split_type":[0,0,0,0,0,0,0,0,0,0,0,0,0,0,0],"sum_hessian":[1.45351E5,1.05599E5,3.9752E4,3.137E4,7.4229E4,1.3188E4,2.6564E4,1.8642E4,1.2728E4,4.2829E4,3.14E4,8.659E3,4.529E3,1.5495E4,1.1069E4],"tree_param":{"num_deleted":"0","num_feature":"21","num_nodes":"15","size_leaf_vector":"1"}},{"base_weights":[2.3970486E4,2.1867215E4,2.8272648E4,1.845542E4,2.3309842E4,2.3802371E4,3.0543055E4,1.719111E2,1.9757996E2,2.1128394E2,2.4585844E2,2.3208922E2,2.6699518E2,2.837461E2,3.3681702E2],"categories":[],"categories_nodes":[],"categories_segments":[],"categories_sizes":[],"default_left":[0,0,0,0,0,0,0,0,0,0,0,0,0,0,0],"id":29,"left_children":[1,3,5,7,9,11,13,-1,-1,-1,-1,-1,-1,-1,-1],"loss_changes":[1.3146123E12,4.800968E11,4.83641E11,4.7449113E10,1.9046334E11,2.7025998E10,2.144275E11,0E0,0E0,0E0,0E0,0E0,0E0,0E0,0E0],"parents":[2147483647,0,0,1,1,2,2,3,3,4,4,5,5,6,6],"right_children":[2,4,6,8,10,12,14,-1,-1,-1,-1,-1,-1,-1,-1],"split_conditions":[3.3632348E4,7E0,9E0,2.928725E4,2.8663305E4,7E0,6.1585425E3,1.719111E2,1.9757996E2,2.1128394E2,2.4585844E2,2.3208922E2,2.6699518E2,2.837461E2,3.3681702E2],"split_indices":[12,0,0,12,12,0,9,0,0,0,0,0,0,0,0],"split_type":[0,0,0,0,0,0,0,0,0,0,0,0,0,0,0],"sum_hessian":[1.45351E5,9.7628E4,4.7723E4,2.9017E4,6.8611E4,1.6078E4,3.1645E4,1.4732E4,1.4285E4,2.5328E4,4.3283E4,1.3352E4,2.726E3,1.8721E4,1.2924E4],"tree_param":{"num_deleted":"0","num_feature":"21","num_nodes":"15","size_leaf_vector":"1"}},{"base_weights":[2.3730795E4,2.1183861E4,2.721748E4,1.792395E4,2.258407E4,2.2751666E4,2.9217455E4,1.6616895E2,1.8865851E2,1.985935E2,2.3413286E2,2.170574E2,2.4658693E2,2.7439047E2,3.313918E2],"categories":[],"categories_nodes":[],"categories_segments":[],"categories_sizes":[],"default_left":[0,0,0,0,0,0,0,0,0,0,0,0,0,0,0],"id":30,"left_children":[1,3,5,7,9,11,13,-1,-1,-1,-1,-1,-1,-1,-1],"loss_changes":[1.2902015E12,3.8301545E11,5.4731053E11,3.0764171E10,1.32290445E11,3.732616E10,2.946121E11,0E0,0E0,0E0,0E0,0E0,0E0,0E0,0E0],"parents":[2147483647,0,0,1,1,2,2,3,3,4,4,5,5,6,6],"right_children":[2,4,6,8,10,12,14,-1,-1,-1,-1,-1,-1,-1,-1],"split_conditions":[3.2295373E4,7E0,8E0,2.8260836E4,2.7219648E4,3.694611E4,3.7681984E4,1.6616895E2,1.8865851E2,1.985935E2,2.3413286E2,2.170574E2,2.4658693E2,2.7439047E2,3.313918E2],"split_indices":[12,0,0,12,12,12,12,0,0,0,0,0,0,0,0],"split_type":[0,0,0,0,0,0,0,0,0,0,0,0,0,0,0],"sum_hessian":[1.45351E5,8.3999E4,6.1352E4,2.5243E4,5.8756E4,1.8981E4,4.2371E4,1.058E4,1.4663E4,1.3715E4,4.5041E4,1.2266E4,6.715E3,2.9157E4,1.3214E4],"tree_param":{"num_deleted":"0","num_feature":"21","num_nodes":"15","size_leaf_vector":"1"}},{"base_weights":[2.34935E4,2.1681893E4,2.8305266E4,1.8633977E4,2.3281305E4,2.3718346E4,3.0581516E4,1.7557314E2,2.0367035E2,2.1786504E2,2.5310786E2,2.2802673E2,2.5463599E2,2.8436734E2,3.3581058E2],"categories":[],"categories_nodes":[],"categories_segments":[],"categories_sizes":[],"default_left":[0,0,0,0,0,0,0,0,0,0,0,0,0,0,0],"id":31,"left_children":[1,3,5,7,9,11,13,-1,-1,-1,-1,-1,-1,-1,-1],"loss_changes":[1.2664198E12,5.143559E11,4.1433432E11,6.7463283E10,2.0953904E11,2.0496515E10,1.69949E11,0E0,0E0,0E0,0E0,0E0,0E0,0E0,0E0],"parents":[2147483647,0,0,1,1,2,2,3,3,4,4,5,5,6,6],"right_children":[2,4,6,8,10,12,14,-1,-1,-1,-1,-1,-1,-1,-1],"split_conditions":[3.455689E4,8E0,9E0,3.0439082E4,3.0480557E4,2.7281126E-1,6.3943306E3,1.7557314E2,2.0367035E2,2.1786504E2,2.5310786E2,2.2802673E2,2.5463599E2,2.8436734E2,3.3581058E2],"split_indices":[12,0,0,12,12,17,9,0,0,0,0,0,0,0,0],"split_type":[0,0,0,0,0,0,0,0,0,0,0,0,0,0,0],"sum_hessian":[1.45351E5,1.05599E5,3.9752E4,3.6347E4,6.9252E4,1.3188E4,2.6564E4,2.2426E4,1.3921E4,3.9886E4,2.9366E4,8.659E3,4.529E3,1.5495E4,1.1069E4],"tree_param":{"num_deleted":"0","num_feature":"21","num_nodes":"15","size_leaf_vector":"1"}},{"base_weights":[2.3258578E4,2.1465082E4,2.802224E4,1.8447646E4,2.3048498E4,2.34812E4,3.0275723E4,1.735008E2,2.0114326E2,2.1636217E2,2.5154605E2,2.2574673E2,2.520902E2,2.8911856E2,3.492751E2],"categories":[],"categories_nodes":[],"categories_segments":[],"categories_sizes":[],"default_left":[0,0,0,0,0,0,0,0,0,0,0,0,0,0,0],"id":32,"left_children":[1,3,5,7,9,11,13,-1,-1,-1,-1,-1,-1,-1,-1],"loss_changes":[1.2412288E12,5.041176E11,4.0608622E11,6.6142077E10,2.054412E11,2.0089143E10,1.6752889E11,0E0,0E0,0E0,0E0,0E0,0E0,0E0,0E0],"parents":[2147483647,0,0,1,1,2,2,3,3,4,4,5,5,6,6],"right_children":[2,4,6,8,10,12,14,-1,-1,-1,-1,-1,-1,-1,-1],"split_conditions":[3.455689E4,8E0,9E0,3.0307908E4,3.0653662E4,2.7281126E-1,4.0539105E4,1.735008E2,2.0114326E2,2.1636217E2,2.5154605E2,2.2574673E2,2.520902E2,2.8911856E2,3.492751E2],"split_indices":[12,0,0,12,12,17,12,0,0,0,0,0,0,0,0],"split_type":[0,0,0,0,0,0,0,0,0,0,0,0,0,0,0],"sum_hessian":[1.45351E5,1.05599E5,3.9752E4,3.6347E4,6.9252E4,1.3188E4,2.6564E4,2.1922E4,1.4425E4,4.1461E4,2.7791E4,8.659E3,4.529E3,2.0547E4,6.017E3],"tree_param":{"num_deleted":"0","num_feature":"21","num_nodes":"15","size_leaf_vector":"1"}},{"base_weights":[2.3026006E4,2.0551197E4,2.6413955E4,1.7381582E4,2.1912623E4,2.207681E4,2.8356305E4,1.6101698E2,1.8303912E2,1.9236174E2,2.2727156E2,2.1221689E2,2.4337927E2,2.646989E2,3.186849E2],"categories":[],"categories_nodes":[],"categories_segments":[],"categories_sizes":[],"default_left":[0,0,0,0,0,0,0,0,0,0,0,0,0,0,0],"id":33,"left_children":[1,3,5,7,9,11,13,-1,-1,-1,-1,-1,-1,-1,-1],"loss_changes":[1.2181685E12,3.6209846E11,5.1623074E11,2.9505356E10,1.2765574E11,3.618531E10,2.79888E11,0E0,0E0,0E0,0E0,0E0,0E0,0E0,0E0],"parents":[2147483647,0,0,1,1,2,2,3,3,4,4,5,5,6,6],"right_children":[2,4,6,8,10,12,14,-1,-1,-1,-1,-1,-1,-1,-1],"split_conditions":[3.2295373E4,7E0,8E0,2.8260836E4,2.7219648E4,3.7919668E4,3.7236598E4,1.6101698E2,1.8303912E2,1.9236174E2,2.2727156E2,2.1221689E2,2.4337927E2,2.646989E2,3.186849E2],"split_indices":[12,0,0,12,12,12,12,0,0,0,0,0,0,0,0],"split_type":[0,0,0,0,0,0,0,0,0,0,0,0,0,0,0],"sum_hessian":[1.45351E5,8.3999E4,6.1352E4,2.5243E4,5.8756E4,1.8981E4,4.2371E4,1.058E4,1.4663E4,1.3715E4,4.5041E4,1.378E4,5.201E3,2.7571E4,1.48E4],"tree_param":{"num_deleted":"0","num_feature":"21","num_nodes":"15","size_leaf_vector":"1"}},{"base_weights":[2.2795758E4,2.0966734E4,2.7291834E4,1.8021428E4,2.2515148E4,2.2904482E4,2.9482504E4,1.6933307E2,1.9556857E2,2.0844255E2,2.4157536E2,2.2341385E2,2.5683887E2,2.7242804E2,3.2272223E2],"categories":[],"categories_nodes":[],"categories_segments":[],"categories_sizes":[],"default_left":[0,0,0,0,0,0,0,0,0,0,0,0,0,0,0],"id":34,"left_children":[1,3,5,7,9,11,13,-1,-1,-1,-1,-1,-1,-1,-1],"loss_changes":[1.1947223E12,4.7081062E11,4.0326555E11,5.915961E10,1.8533371E11,2.1339046E10,1.7424187E11,0E0,0E0,0E0,0E0,0E0,0E0,0E0,0E0],"parents":[2147483647,0,0,1,1,2,2,3,3,4,4,5,5,6,6],"right_children":[2,4,6,8,10,12,14,-1,-1,-1,-1,-1,-1,-1,-1],"split_conditions":[3.42862E4,8E0,9E0,3.0053404E4,2.980442E4,7E0,6.1585425E3,1.6933307E2,1.9556857E2,2.0844255E2,2.4157536E2,2.2341385E2,2.5683887E2,2.7242804E2,3.2272223E2],"split_indices":[12,0,0,12,12,0,9,0,0,0,0,0,0,0,0],"split_type":[0,0,0,0,0,0,0,0,0,0,0,0,0,0,0],"sum_hessian":[1.45351E5,1.03324E5,4.2027E4,3.5607E4,6.7717E4,1.4E4,2.8027E4,2.0846E4,1.4761E4,3.3574E4,3.4143E4,1.1649E4,2.351E3,1.5552E4,1.2475E4],"tree_param":{"num_deleted":"0","num_feature":"21","num_nodes":"15","size_leaf_vector":"1"}},{"base_weights":[2.2567814E4,2.0254658E4,2.6056938E4,1.711379E4,2.1595047E4,2.1748008E4,2.7989115E4,1.5876837E2,1.8106058E2,1.9101662E2,2.247754E2,2.1025435E2,2.431742E2,2.64887E2,3.2218015E2],"categories":[],"categories_nodes":[],"categories_segments":[],"categories_sizes":[],"default_left":[0,0,0,0,0,0,0,0,0,0,0,0,0,0,0],"id":35,"left_children":[1,3,5,7,9,11,13,-1,-1,-1,-1,-1,-1,-1,-1],"loss_changes":[1.1725932E12,3.6762655E11,4.817997E11,3.1809077E10,1.3437082E11,3.2801554E10,2.5295638E11,0E0,0E0,0E0,0E0,0E0,0E0,0E0,0E0],"parents":[2147483647,0,0,1,1,2,2,3,3,4,4,5,5,6,6],"right_children":[2,4,6,8,10,12,14,-1,-1,-1,-1,-1,-1,-1,-1],"split_conditions":[3.2609656E4,7E0,8E0,2.8530012E4,2.7530674E4,3.8891605E4,3.8589375E4,1.5876837E2,1.8106058E2,1.9101662E2,2.247754E2,2.1025435E2,2.431742E2,2.64887E2,3.2218015E2],"split_indices":[12,0,0,12,12,12,12,0,0,0,0,0,0,0,0],"split_type":[0,0,0,0,0,0,0,0,0,0,0,0,0,0,0],"sum_hessian":[1.45351E5,8.7409E4,5.7942E4,2.6149E4,6.126E4,1.7942E4,4E4,1.1647E4,1.4502E4,1.602E4,4.524E4,1.4011E4,3.931E3,2.953E4,1.047E4],"tree_param":{"num_deleted":"0","num_feature":"21","num_nodes":"15","size_leaf_vector":"1"}},{"base_weights":[2.2342148E4,2.0615229E4,2.6928982E4,1.7378926E4,2.1982672E4,2.2560965E4,2.9096605E4,1.6309982E2,1.8973486E2,2.0269106E2,2.3649425E2,2.1658086E2,2.4282014E2,2.7934988E2,3.428653E2],"categories":[],"categories_nodes":[],"categories_segments":[],"categories_sizes":[],"default_left":[0,0,0,0,0,0,0,0,0,0,0,0,0,0,0],"id":36,"left_children":[1,3,5,7,9,11,13,-1,-1,-1,-1,-1,-1,-1,-1],"loss_changes":[1.1507912E12,4.6694767E11,3.7573204E11,5.3162803E10,2.1152714E11,1.9969081E10,1.5919481E11,0E0,0E0,0E0,0E0,0E0,0E0,0E0,0E0],"parents":[2147483647,0,0,1,1,2,2,3,3,4,4,5,5,6,6],"right_children":[2,4,6,8,10,12,14,-1,-1,-1,-1,-1,-1,-1,-1],"split_conditions":[3.455689E4,7E0,9E0,3.0349035E4,2.980442E4,2.7281126E-1,4.1260652E4,1.6309982E2,1.8973486E2,2.0269106E2,2.3649425E2,2.1658086E2,2.4282014E2,2.7934988E2,3.428653E2],"split_indices":[12,0,0,12,12,17,12,0,0,0,0,0,0,0,0],"split_type":[0,0,0,0,0,0,0,0,0,0,0,0,0,0,0],"sum_hessian":[1.45351E5,1.05599E5,3.9752E4,3.137E4,7.4229E4,1.3188E4,2.6564E4,1.8787E4,1.2583E4,3.6607E4,3.7622E4,8.659E3,4.529E3,2.1711E4,4.853E3],"tree_param":{"num_deleted":"0","num_feature":"21","num_nodes":"15","size_leaf_vector":"1"}},{"base_weights":[2.211874E4,1.971712E4,2.535513E4,1.667686E4,2.1024096E4,2.1192713E4,2.7219387E4,1.5355284E2,1.7509468E2,1.83967E2,2.1801012E2,2.0363707E2,2.3412546E2,2.5406154E2,3.0642487E2],"categories":[],"categories_nodes":[],"categories_segments":[],"categories_sizes":[],"default_left":[0,0,0,0,0,0,0,0,0,0,0,0,0,0,0],"id":37,"left_children":[1,3,5,7,9,11,13,-1,-1,-1,-1,-1,-1,-1,-1],"loss_changes":[1.129266E12,3.312053E11,4.7984515E11,2.7340046E10,1.1870929E11,3.4774974E10,2.6461025E11,0E0,0E0,0E0,0E0,0E0,0E0,0E0,0E0],"parents":[2147483647,0,0,1,1,2,2,3,3,4,4,5,5,6,6],"right_children":[2,4,6,8,10,12,14,-1,-1,-1,-1,-1,-1,-1,-1],"split_conditions":[3.2246826E4,7E0,8E0,2.802785E4,2.7166238E4,3.7919668E4,3.7236598E4,1.5355284E2,1.7509468E2,1.83967E2,2.1801012E2,2.0363707E2,2.3412546E2,2.5406154E2,3.0642487E2],"split_indices":[12,0,0,12,12,12,12,0,0,0,0,0,0,0,0],"split_type":[0,0,0,0,0,0,0,0,0,0,0,0,0,0,0],"sum_hessian":[1.45351E5,8.344E4,6.1911E4,2.509E4,5.835E4,1.9155E4,4.2756E4,9.705E3,1.5385E4,1.3322E4,4.5028E4,1.3954E4,5.201E3,2.7956E4,1.48E4],"tree_param":{"num_deleted":"0","num_feature":"21","num_nodes":"15","size_leaf_vector":"1"}},{"base_weights":[2.1897564E4,1.9880791E4,2.5678188E4,1.709987E4,2.1352793E4,2.1644352E4,2.7737729E4,1.5891937E2,1.8189882E2,1.9286893E2,2.2417043E2,2.1074654E2,2.4377615E2,2.5657782E2,3.0667935E2],"categories":[],"categories_nodes":[],"categories_segments":[],"categories_sizes":[],"default_left":[0,0,0,0,0,0,0,0,0,0,0,0,0,0,0],"id":38,"left_children":[1,3,5,7,9,11,13,-1,-1,-1,-1,-1,-1,-1,-1],"loss_changes":[1.1077534E12,3.8767113E11,4.1945137E11,4.291612E10,1.3583673E11,2.61043E10,2.0318886E11,0E0,0E0,0E0,0E0,0E0,0E0,0E0,0E0],"parents":[2147483647,0,0,1,1,2,2,3,3,4,4,5,5,6,6],"right_children":[2,4,6,8,10,12,14,-1,-1,-1,-1,-1,-1,-1,-1],"split_conditions":[3.3328312E4,8E0,9E0,2.8873852E4,2.8441473E4,7E0,6.019055E3,1.5891937E2,1.8189882E2,1.9286893E2,2.2417043E2,2.1074654E2,2.4377615E2,2.5657782E2,3.0667935E2],"split_indices":[12,0,0,12,12,0,9,0,0,0,0,0,0,0,0],"split_type":[0,0,0,0,0,0,0,0,0,0,0,0,0,0,0],"sum_hessian":[1.45351E5,9.4791E4,5.056E4,3.2813E4,6.1978E4,1.7093E4,3.3467E4,1.5572E4,1.7241E4,2.1079E4,4.0899E4,1.4152E4,2.941E3,1.9579E4,1.3888E4],"tree_param":{"num_deleted":"0","num_feature":"21","num_nodes":"15","size_leaf_vector":"1"}},{"base_weights":[2.16786E4,2.0065105E4,2.6320234E4,1.6907027E4,2.1397531E4,2.2007047E4,2.8447686E4,1.5817003E2,1.845452E2,1.9998444E2,2.3426208E2,2.1114984E2,2.3805164E2,2.6388684E2,3.1244012E2],"categories":[],"categories_nodes":[],"categories_segments":[],"categories_sizes":[],"default_left":[0,0,0,0,0,0,0,0,0,0,0,0,0,0,0],"id":39,"left_children":[1,3,5,7,9,11,13,-1,-1,-1,-1,-1,-1,-1,-1],"loss_changes":[1.0880486E12,4.535175E11,3.4338557E11,5.370282E10,2.1483015E11,1.9368247E10,1.4371154E11,0E0,0E0,0E0,0E0,0E0,0E0,0E0,0E0],"parents":[2147483647,0,0,1,1,2,2,3,3,4,4,5,5,6,6],"right_children":[2,4,6,8,10,12,14,-1,-1,-1,-1,-1,-1,-1,-1],"split_conditions":[3.4834465E4,7E0,9E0,3.0349035E4,3.0653662E4,2.7281126E-1,6.4428066E3,1.5817003E2,1.845452E2,1.9998444E2,2.3426208E2,2.1114984E2,2.3805164E2,2.6388684E2,3.1244012E2],"split_indices":[12,0,0,12,12,17,9,0,0,0,0,0,0,0,0],"split_type":[0,0,0,0,0,0,0,0,0,0,0,0,0,0,0],"sum_hessian":[1.45351E5,1.07862E5,3.7489E4,3.2009E4,7.5853E4,1.2387E4,2.5102E4,1.8787E4,1.3222E4,4.4899E4,3.0954E4,8.288E3,4.099E3,1.4463E4,1.0639E4],"tree_param":{"num_deleted":"0","num_feature":"21","num_nodes":"15","size_leaf_vector":"1"}},{"base_weights":[2.1461826E4,1.981525E4,2.592034E4,1.6698436E4,2.1131463E4,2.1703521E4,2.8011424E4,1.5648766E2,1.8216351E2,1.9421199E2,2.2704646E2,2.0815346E2,2.341742E2,2.6868747E2,3.3031158E2],"categories":[],"categories_nodes":[],"categories_segments":[],"categories_sizes":[],"default_left":[0,0,0,0,0,0,0,0,0,0,0,0,0,0,0],"id":40,"left_children":[1,3,5,7,9,11,13,-1,-1,-1,-1,-1,-1,-1,-1],"loss_changes":[1.066557E12,4.3513387E11,3.4504022E11,4.9941578E10,2.003619E11,1.930009E10,1.4939901E11,0E0,0E0,0E0,0E0,0E0,0E0,0E0,0E0],"parents":[2147483647,0,0,1,1,2,2,3,3,4,4,5,5,6,6],"right_children":[2,4,6,8,10,12,14,-1,-1,-1,-1,-1,-1,-1,-1],"split_conditions":[3.4620473E4,7E0,9E0,3.0307908E4,2.9719262E4,2.7281126E-1,4.1260652E4,1.5648766E2,1.8216351E2,1.9421199E2,2.2704646E2,2.0815346E2,2.341742E2,2.6868747E2,3.3031158E2],"split_indices":[12,0,0,12,12,17,12,0,0,0,0,0,0,0,0],"split_type":[0,0,0,0,0,0,0,0,0,0,0,0,0,0,0],"sum_hessian":[1.45351E5,1.06153E5,3.9198E4,3.1522E4,7.4631E4,1.2998E4,2.62E4,1.8642E4,1.288E4,3.5764E4,3.8867E4,8.57E3,4.428E3,2.1347E4,4.853E3],"tree_param":{"num_deleted":"0","num_feature":"21","num_nodes":"15","size_leaf_vector":"1"}},{"base_weights":[2.124722E4,1.8934148E4,2.436429E4,1.6012294E4,2.0190225E4,2.0359441E4,2.615797E4,1.4728218E2,1.682129E2,1.7629582E2,2.0947408E2,1.9640807E2,2.2836185E2,2.4746216E2,3.0293484E2],"categories":[],"categories_nodes":[],"categories_segments":[],"categories_sizes":[],"default_left":[0,0,0,0,0,0,0,0,0,0,0,0,0,0,0],"id":41,"left_children":[1,3,5,7,9,11,13,-1,-1,-1,-1,-1,-1,-1,-1],"loss_changes":[1.0475316E12,3.0590947E11,4.4421035E11,2.5817514E10,1.1276806E11,3.364723E10,2.4887951E11,0E0,0E0,0E0,0E0,0E0,0E0,0E0,0E0],"parents":[2147483647,0,0,1,1,2,2,3,3,4,4,5,5,6,6],"right_children":[2,4,6,8,10,12,14,-1,-1,-1,-1,-1,-1,-1,-1],"split_conditions":[3.2246826E4,7E0,8E0,2.802785E4,2.7166238E4,3.8589375E4,3.8448375E4,1.4728218E2,1.682129E2,1.7629582E2,2.0947408E2,1.9640807E2,2.2836185E2,2.4746216E2,3.0293484E2],"split_indices":[12,0,0,12,12,12,12,0,0,0,0,0,0,0,0],"split_type":[0,0,0,0,0,0,0,0,0,0,0,0,0,0,0],"sum_hessian":[1.45351E5,8.344E4,6.1911E4,2.509E4,5.835E4,1.9155E4,4.2756E4,9.705E3,1.5385E4,1.3322E4,4.5028E4,1.4854E4,4.301E3,3.188E4,1.0876E4],"tree_param":{"num_deleted":"0","num_feature":"21","num_nodes":"15","size_leaf_vector":"1"}},{"base_weights":[2.103476E4,1.9466654E4,2.5545816E4,1.6712062E4,2.0908416E4,2.1357318E4,2.7611768E4,1.5689774E2,1.8277179E2,1.9548177E2,2.2829999E2,2.0479976E2,2.3125839E2,2.5592725E2,3.0353857E2],"categories":[],"categories_nodes":[],"categories_segments":[],"categories_sizes":[],"default_left":[0,0,0,0,0,0,0,0,0,0,0,0,0,0,0],"id":42,"left_children":[1,3,5,7,9,11,13,-1,-1,-1,-1,-1,-1,-1,-1],"loss_changes":[1.02770095E12,4.2802453E11,3.2381914E11,5.9015954E10,1.8461229E11,1.8748015E10,1.3820441E11,0E0,0E0,0E0,0E0,0E0,0E0,0E0,0E0],"parents":[2147483647,0,0,1,1,2,2,3,3,4,4,5,5,6,6],"right_children":[2,4,6,8,10,12,14,-1,-1,-1,-1,-1,-1,-1,-1],"split_conditions":[3.4834465E4,8E0,9E0,3.0439082E4,3.0653662E4,2.7281126E-1,6.4428066E3,1.5689774E2,1.8277179E2,1.9548177E2,2.2829999E2,2.0479976E2,2.3125839E2,2.5592725E2,3.0353857E2],"split_indices":[12,0,0,12,12,17,9,0,0,0,0,0,0,0,0],"split_type":[0,0,0,0,0,0,0,0,0,0,0,0,0,0,0],"sum_hessian":[1.45351E5,1.07862E5,3.7489E4,3.7063E4,7.0799E4,1.2387E4,2.5102E4,2.2426E4,1.4637E4,4.1461E4,2.9338E4,8.288E3,4.099E3,1.4463E4,1.0639E4],"tree_param":{"num_deleted":"0","num_feature":"21","num_nodes":"15","size_leaf_vector":"1"}},{"base_weights":[2.0824426E4,1.8537572E4,2.3857527E4,1.5675361E4,1.9769078E4,1.9939625E4,2.561147E4,1.4318954E2,1.6411226E2,1.7002078E2,2.044901E2,1.9291805E2,2.2621541E2,2.403197E2,2.9188055E2],"categories":[],"categories_nodes":[],"categories_segments":[],"categories_sizes":[],"default_left":[0,0,0,0,0,0,0,0,0,0,0,0,0,0,0],"id":43,"left_children":[1,3,5,7,9,11,13,-1,-1,-1,-1,-1,-1,-1,-1],"loss_changes":[1.00775703E12,2.918103E11,4.2882145E11,2.4654119E10,1.0865974E11,3.3139196E10,2.4308718E11,0E0,0E0,0E0,0E0,0E0,0E0,0E0,0E0],"parents":[2147483647,0,0,1,1,2,2,3,3,4,4,5,5,6,6],"right_children":[2,4,6,8,10,12,14,-1,-1,-1,-1,-1,-1,-1,-1],"split_conditions":[3.2197623E4,7E0,8E0,2.7784787E4,2.6875852E4,3.9046953E4,3.7681984E4,1.4318954E2,1.6411226E2,1.7002078E2,2.044901E2,1.9291805E2,2.2621541E2,2.403197E2,2.9188055E2],"split_indices":[12,0,0,12,12,12,12,0,0,0,0,0,0,0,0],"split_type":[0,0,0,0,0,0,0,0,0,0,0,0,0,0,0],"sum_hessian":[1.45351E5,8.2874E4,6.2477E4,2.4935E4,5.7939E4,1.9324E4,4.3153E4,8.777E3,1.6158E4,1.1434E4,4.6505E4,1.5571E4,3.753E3,2.9939E4,1.3214E4],"tree_param":{"num_deleted":"0","num_feature":"21","num_nodes":"15","size_leaf_vector":"1"}},{"base_weights":[2.0616191E4,1.9077396E4,2.5042934E4,1.6376307E4,2.0491156E4,2.093532E4,2.7068988E4,1.537299E2,1.7912375E2,1.9156616E2,2.2376431E2,2.0063895E2,2.269198E2,2.5931268E2,3.1809772E2],"categories":[],"categories_nodes":[],"categories_segments":[],"categories_sizes":[],"default_left":[0,0,0,0,0,0,0,0,0,0,0,0,0,0,0],"id":44,"left_children":[1,3,5,7,9,11,13,-1,-1,-1,-1,-1,-1,-1,-1],"loss_changes":[9.8963764E11,4.115619E11,3.1143546E11,5.684645E10,1.7770217E11,1.8508415E10,1.3457215E11,0E0,0E0,0E0,0E0,0E0,0E0,0E0,0E0],"parents":[2147483647,0,0,1,1,2,2,3,3,4,4,5,5,6,6],"right_children":[2,4,6,8,10,12,14,-1,-1,-1,-1,-1,-1,-1,-1],"split_conditions":[3.4834465E4,8E0,9E0,3.0439082E4,3.0653662E4,2.7281126E-1,4.1260652E4,1.537299E2,1.7912375E2,1.9156616E2,2.2376431E2,2.0063895E2,2.269198E2,2.5931268E2,3.1809772E2],"split_indices":[12,0,0,12,12,17,12,0,0,0,0,0,0,0,0],"split_type":[0,0,0,0,0,0,0,0,0,0,0,0,0,0,0],"sum_hessian":[1.45351E5,1.07862E5,3.7489E4,3.7063E4,7.0799E4,1.2387E4,2.5102E4,2.2426E4,1.4637E4,4.1461E4,2.9338E4,8.288E3,4.099E3,2.0249E4,4.853E3],"tree_param":{"num_deleted":"0","num_feature":"21","num_nodes":"15","size_leaf_vector":"1"}},{"base_weights":[2.0410043E4,1.8618967E4,2.413932E4,1.569365E4,1.9855848E4,2.0302762E4,2.608571E4,1.4423877E2,1.6694498E2,1.7780724E2,2.0916743E2,1.9825056E2,2.3376328E2,2.3931128E2,2.864191E2],"categories":[],"categories_nodes":[],"categories_segments":[],"categories_sizes":[],"default_left":[0,0,0,0,0,0,0,0,0,0,0,0,0,0,0],"id":45,"left_children":[1,3,5,7,9,11,13,-1,-1,-1,-1,-1,-1,-1,-1],"loss_changes":[9.7041934E11,3.549933E11,3.516064E11,3.6850106E10,1.5155698E11,2.2846374E10,1.7159527E11,0E0,0E0,0E0,0E0,0E0,0E0,0E0,0E0],"parents":[2147483647,0,0,1,1,2,2,3,3,4,4,5,5,6,6],"right_children":[2,4,6,8,10,12,14,-1,-1,-1,-1,-1,-1,-1,-1],"split_conditions":[3.3692152E4,7E0,9E0,2.8831877E4,2.8441473E4,4.1004895E4,5.883484E3,1.4423877E2,1.6694498E2,1.7780724E2,2.0916743E2,1.9825056E2,2.3376328E2,2.3931128E2,2.864191E2],"split_indices":[12,0,0,12,12,12,9,0,0,0,0,0,0,0,0],"split_type":[0,0,0,0,0,0,0,0,0,0,0,0,0,0,0],"sum_hessian":[1.45351E5,9.8196E4,4.7155E4,2.9185E4,6.9011E4,1.5875E4,3.128E4,1.2871E4,1.6314E4,2.3352E4,4.5659E4,1.3746E4,2.129E3,1.6979E4,1.4301E4],"tree_param":{"num_deleted":"0","num_feature":"21","num_nodes":"15","size_leaf_vector":"1"}},{"base_weights":[2.0205953E4,1.869651E4,2.4548256E4,1.5745568E4,1.9941545E4,2.0521664E4,2.653435E4,1.4507585E2,1.6934872E2,1.8487558E2,2.1665521E2,1.9656648E2,2.2265466E2,2.5412193E2,3.1210315E2],"categories":[],"categories_nodes":[],"categories_segments":[],"categories_sizes":[],"default_left":[0,0,0,0,0,0,0,0,0,0,0,0,0,0,0],"id":46,"left_children":[1,3,5,7,9,11,13,-1,-1,-1,-1,-1,-1,-1,-1],"loss_changes":[9.522496E11,3.9597585E11,2.9926988E11,4.6883406E10,1.8973563E11,1.8248368E10,1.309273E11,0E0,0E0,0E0,0E0,0E0,0E0,0E0,0E0],"parents":[2147483647,0,0,1,1,2,2,3,3,4,4,5,5,6,6],"right_children":[2,4,6,8,10,12,14,-1,-1,-1,-1,-1,-1,-1,-1],"split_conditions":[3.4834465E4,7E0,9E0,2.9525895E4,3.0262262E4,2.7281126E-1,4.1260652E4,1.4507585E2,1.6934872E2,1.8487558E2,2.1665521E2,1.9656648E2,2.2265466E2,2.5412193E2,3.1210315E2],"split_indices":[12,0,0,12,12,17,12,0,0,0,0,0,0,0,0],"split_type":[0,0,0,0,0,0,0,0,0,0,0,0,0,0,0],"sum_hessian":[1.45351E5,1.07862E5,3.7489E4,3.2009E4,7.5853E4,1.2387E4,2.5102E4,1.569E4,1.6319E4,4.1155E4,3.4698E4,8.288E3,4.099E3,2.0249E4,4.853E3],"tree_param":{"num_deleted":"0","num_feature":"21","num_nodes":"15","size_leaf_vector":"1"}},{"base_weights":[2.0003906E4,1.7800957E4,2.2925723E4,1.5346882E4,1.9128818E4,1.8863732E4,2.4497473E4,1.4074608E2,1.6081706E2,1.6439307E2,1.975096E2,1.8257422E2,2.21229E2,2.3224924E2,2.856088E2],"categories":[],"categories_nodes":[],"categories_segments":[],"categories_sizes":[],"default_left":[0,0,0,0,0,0,0,0,0,0,0,0,0,0,0],"id":47,"left_children":[1,3,5,7,9,11,13,-1,-1,-1,-1,-1,-1,-1,-1],"loss_changes":[9.351662E11,2.6976924E11,3.9842742E11,2.6981433E10,8.965325E10,3.4048311E10,2.322533E11,0E0,0E0,0E0,0E0,0E0,0E0,0E0,0E0],"parents":[2147483647,0,0,1,1,2,2,3,3,4,4,5,5,6,6],"right_children":[2,4,6,8,10,12,14,-1,-1,-1,-1,-1,-1,-1,-1],"split_conditions":[3.2197623E4,8E0,7E0,2.7784787E4,2.6875852E4,3.9917293E4,3.8589375E4,1.4074608E2,1.6081706E2,1.6439307E2,1.975096E2,1.8257422E2,2.21229E2,2.3224924E2,2.856088E2],"split_indices":[12,0,0,12,12,12,12,0,0,0,0,0,0,0,0],"split_type":[0,0,0,0,0,0,0,0,0,0,0,0,0,0,0],"sum_hessian":[1.45351E5,8.2874E4,6.2477E4,2.9102E4,5.3772E4,1.7434E4,4.5043E4,1.0662E4,1.844E4,1.0107E4,4.3665E4,1.4705E4,2.729E3,3.4306E4,1.0737E4],"tree_param":{"num_deleted":"0","num_feature":"21","num_nodes":"15","size_leaf_vector":"1"}},{"base_weights":[1.9803877E4,1.832224E4,2.406619E4,1.5428005E4,1.954335E4,2.0114977E4,2.6015102E4,1.4418584E2,1.683459E2,1.7786378E2,2.091878E2,1.9255724E2,2.184723E2,2.4028569E2,2.8604758E2],"categories":[],"categories_nodes":[],"categories_segments":[],"categories_sizes":[],"default_left":[0,0,0,0,0,0,0,0,0,0,0,0,0,0,0],"id":48,"left_children":[1,3,5,7,9,11,13,-1,-1,-1,-1,-1,-1,-1,-1],"loss_changes":[9.174872E11,3.8090572E11,2.8816966E11,4.520621E10,1.8293876E11,1.8018206E10,1.28453706E11,0E0,0E0,0E0,0E0,0E0,0E0,0E0,0E0],"parents":[2147483647,0,0,1,1,2,2,3,3,4,4,5,5,6,6],"right_children":[2,4,6,8,10,12,14,-1,-1,-1,-1,-1,-1,-1,-1],"split_conditions":[3.4834465E4,7E0,9E0,3.0307908E4,2.9486059E4,2.7281126E-1,6.3943306E3,1.4418584E2,1.683459E2,1.7786378E2,2.091878E2,1.9255724E2,2.184723E2,2.4028569E2,2.8604758E2],"split_indices":[12,0,0,12,12,17,9,0,0,0,0,0,0,0,0],"split_type":[0,0,0,0,0,0,0,0,0,0,0,0,0,0,0],"sum_hessian":[1.45351E5,1.07862E5,3.7489E4,3.2009E4,7.5853E4,1.2387E4,2.5102E4,1.8642E4,1.3367E4,3.3313E4,4.254E4,8.288E3,4.099E3,1.4211E4,1.0891E4],"tree_param":{"num_deleted":"0","num_feature":"21","num_nodes":"15","size_leaf_vector":"1"}},{"base_weights":[1.960585E4,1.7659916E4,2.2792438E4,1.5194818E4,1.8974018E4,1.8697248E4,2.4383336E4,1.3917148E2,1.5998834E2,1.6874724E2,1.9808588E2,1.8114847E2,2.205665E2,2.3346053E2,2.915764E2],"categories":[],"categories_nodes":[],"categories_segments":[],"categories_sizes":[],"default_left":[0,0,0,0,0,0,0,0,0,0,0,0,0,0,0],"id":49,"left_children":[1,3,5,7,9,11,13,-1,-1,-1,-1,-1,-1,-1,-1],"loss_changes":[9.0090714E11,2.9205987E11,3.5855217E11,3.2018792E10,1.02794E11,2.9773791E10,1.9584673E11,0E0,0E0,0E0,0E0,0E0,0E0,0E0,0E0],"parents":[2147483647,0,0,1,1,2,2,3,3,4,4,5,5,6,6],"right_children":[2,4,6,8,10,12,14,-1,-1,-1,-1,-1,-1,-1,-1],"split_conditions":[3.287633E4,8E0,7E0,2.8118322E4,2.7882932E4,4.0539105E4,4.011516E4,1.3917148E2,1.5998834E2,1.6874724E2,1.9808588E2,1.8114847E2,2.205665E2,2.3346053E2,2.915764E2],"split_indices":[12,0,0,12,12,12,12,0,0,0,0,0,0,0,0],"split_type":[0,0,0,0,0,0,0,0,0,0,0,0,0,0,0],"sum_hessian":[1.45351E5,9.0247E4,5.5104E4,3.1385E4,5.8862E4,1.5421E4,3.9683E4,1.2129E4,1.9256E4,1.675E4,4.2112E4,1.3148E4,2.273E3,3.2605E4,7.078E3],"tree_param":{"num_deleted":"0","num_feature":"21","num_nodes":"15","size_leaf_vector":"1"}},{"base_weights":[1.9409803E4,1.804425E4,2.386783E4,1.5180675E4,1.9250615E4,1.9892938E4,2.5802123E4,1.4134743E2,1.6563477E2,1.7912286E2,2.1127037E2,1.9057368E2,2.1726869E2,2.4833984E2,3.0873724E2],"categories":[],"categories_nodes":[],"categories_segments":[],"categories_sizes":[],"default_left":[0,0,0,0,0,0,0,0,0,0,0,0,0,0,0],"id":50,"left_children":[1,3,5,7,9,11,13,-1,-1,-1,-1,-1,-1,-1,-1],"loss_changes":[8.844235E11,3.8410597E11,2.6151485E11,4.7475327E10,1.9622003E11,1.6687038E10,1.11775056E11,0E0,0E0,0E0,0E0,0E0,0E0,0E0,0E0],"parents":[2147483647,0,0,1,1,2,2,3,3,4,4,5,5,6,6],"right_children":[2,4,6,8,10,12,14,-1,-1,-1,-1,-1,-1,-1,-1],"split_conditions":[3.5271176E4,7E0,9E0,3.0349035E4,3.0742639E4,2.6037648E-1,4.2128945E4,1.4134743E2,1.6563477E2,1.7912286E2,2.1127037E2,1.9057368E2,2.1726869E2,2.4833984E2,3.0873724E2],"split_indices":[12,0,0,12,12,17,12,0,0,0,0,0,0,0,0],"split_type":[0,0,0,0,0,0,0,0,0,0,0,0,0,0,0],"sum_hessian":[1.45351E5,1.11272E5,3.4079E4,3.2986E4,7.8286E4,1.1159E4,2.292E4,1.8787E4,1.4199E4,4.5701E4,3.2585E4,7.674E3,3.485E3,1.9251E4,3.669E3],"tree_param":{"num_deleted":"0","num_feature":"21","num_nodes":"15","size_leaf_vector":"1"}},{"base_weights":[1.9215715E4,1.702476E4,2.1942338E4,1.4394766E4,1.815958E4,1.8060498E4,2.3444549E4,1.31674E2,1.5087938E2,1.559837E2,1.8811964E2,1.7482948E2,2.1299792E2,2.1905583E2,2.6619415E2],"categories":[],"categories_nodes":[],"categories_segments":[],"categories_sizes":[],"default_left":[0,0,0,0,0,0,0,0,0,0,0,0,0,0,0],"id":51,"left_children":[1,3,5,7,9,11,13,-1,-1,-1,-1,-1,-1,-1,-1],"loss_changes":[8.679441E11,2.4028748E11,3.7718956E11,2.0474495E10,9.377625E10,3.343804E10,2.2752002E11,0E0,0E0,0E0,0E0,0E0,0E0,0E0,0E0],"parents":[2147483647,0,0,1,1,2,2,3,3,4,4,5,5,6,6],"right_children":[2,4,6,8,10,12,14,-1,-1,-1,-1,-1,-1,-1,-1],"split_conditions":[3.1988277E4,7E0,7E0,2.7784787E4,2.6875852E4,3.9917293E4,3.7236598E4,1.31674E2,1.5087938E2,1.559837E2,1.8811964E2,1.7482948E2,2.1299792E2,2.1905583E2,2.6619415E2],"split_indices":[12,0,0,12,12,12,12,0,0,0,0,0,0,0,0],"split_type":[0,0,0,0,0,0,0,0,0,0,0,0,0,0,0],"sum_hessian":[1.45351E5,8.0596E4,6.4755E4,2.4298E4,5.6298E4,1.8071E4,4.6684E4,8.777E3,1.5521E4,1.1434E4,4.4864E4,1.5342E4,2.729E3,3.1448E4,1.5236E4],"tree_param":{"num_deleted":"0","num_feature":"21","num_nodes":"15","size_leaf_vector":"1"}},{"base_weights":[1.9023568E4,1.768357E4,2.3398178E4,1.5160114E4,1.9000225E4,1.949915E4,2.5295553E4,1.4190086E2,1.6622162E2,1.7690514E2,2.0788737E2,1.8669177E2,2.1320879E2,2.3342323E2,2.776655E2],"categories":[],"categories_nodes":[],"categories_segments":[],"categories_sizes":[],"default_left":[0,0,0,0,0,0,0,0,0,0,0,0,0,0,0],"id":52,"left_children":[1,3,5,7,9,11,13,-1,-1,-1,-1,-1,-1,-1,-1],"loss_changes":[8.5163246E11,3.694196E11,2.5162888E11,5.388003E10,1.709032E11,1.6475488E10,1.099778E11,0E0,0E0,0E0,0E0,0E0,0E0,0E0,0E0],"parents":[2147483647,0,0,1,1,2,2,3,3,4,4,5,5,6,6],"right_children":[2,4,6,8,10,12,14,-1,-1,-1,-1,-1,-1,-1,-1],"split_conditions":[3.5271176E4,8E0,9E0,3.0567135E4,3.0742639E4,2.6037648E-1,6.491431E3,1.4190086E2,1.6622162E2,1.7690514E2,2.0788737E2,1.8669177E2,2.1320879E2,2.3342323E2,2.776655E2],"split_indices":[12,0,0,12,12,17,9,0,0,0,0,0,0,0,0],"split_type":[0,0,0,0,0,0,0,0,0,0,0,0,0,0,0],"sum_hessian":[1.45351E5,1.11272E5,3.4079E4,3.8156E4,7.3116E4,1.1159E4,2.292E4,2.2944E4,1.5212E4,4.2214E4,3.0902E4,7.674E3,3.485E3,1.2807E4,1.0113E4],"tree_param":{"num_deleted":"0","num_feature":"21","num_nodes":"15","size_leaf_vector":"1"}},{"base_weights":[1.8833344E4,1.7112158E4,2.2173477E4,1.4700301E4,1.838723E4,1.8148963E4,2.373707E4,1.3492253E2,1.5578447E2,1.6429753E2,1.9301459E2,1.7588057E2,2.1538045E2,2.2741373E2,2.8416278E2],"categories":[],"categories_nodes":[],"categories_segments":[],"categories_sizes":[],"default_left":[0,0,0,0,0,0,0,0,0,0,0,0,0,0,0],"id":53,"left_children":[1,3,5,7,9,11,13,-1,-1,-1,-1,-1,-1,-1,-1],"loss_changes":[8.352453E11,2.9473374E11,3.105903E11,3.4987835E10,1.1197533E11,2.5919226E10,1.6518427E11,0E0,0E0,0E0,0E0,0E0,0E0,0E0,0E0],"parents":[2147483647,0,0,1,1,2,2,3,3,4,4,5,5,6,6],"right_children":[2,4,6,8,10,12,14,-1,-1,-1,-1,-1,-1,-1,-1],"split_conditions":[3.344383E4,8E0,7E0,2.8530012E4,2.830444E4,4.1004895E4,4.0539105E4,1.3492253E2,1.5578447E2,1.6429753E2,1.9301459E2,1.7588057E2,2.1538045E2,2.2741373E2,2.8416278E2],"split_indices":[12,0,0,12,12,12,12,0,0,0,0,0,0,0,0],"split_type":[0,0,0,0,0,0,0,0,0,0,0,0,0,0,0],"sum_hessian":[1.45351E5,9.5926E4,4.9425E4,3.3179E4,6.2747E4,1.3833E4,3.5592E4,1.3973E4,1.9206E4,1.9982E4,4.2765E4,1.1874E4,1.959E3,2.9352E4,6.24E3],"tree_param":{"num_deleted":"0","num_feature":"21","num_nodes":"15","size_leaf_vector":"1"}},{"base_weights":[1.8645021E4,1.7329922E4,2.2938342E4,1.4573875E4,1.8490988E4,1.911206E4,2.4800318E4,1.3566768E2,1.590535E2,1.7188832E2,2.0279333E2,1.8288116E2,2.0920627E2,2.2876245E2,2.723444E2],"categories":[],"categories_nodes":[],"categories_segments":[],"categories_sizes":[],"default_left":[0,0,0,0,0,0,0,0,0,0,0,0,0,0,0],"id":54,"left_children":[1,3,5,7,9,11,13,-1,-1,-1,-1,-1,-1,-1,-1],"loss_changes":[8.2028003E11,3.558007E11,2.4232801E11,4.401817E10,1.819594E11,1.6247685E10,1.0672616E11,0E0,0E0,0E0,0E0,0E0,0E0,0E0,0E0],"parents":[2147483647,0,0,1,1,2,2,3,3,4,4,5,5,6,6],"right_children":[2,4,6,8,10,12,14,-1,-1,-1,-1,-1,-1,-1,-1],"split_conditions":[3.5271176E4,7E0,9E0,3.0349035E4,3.0698201E4,2.6037648E-1,6.491431E3,1.3566768E2,1.590535E2,1.7188832E2,2.0279333E2,1.8288116E2,2.0920627E2,2.2876245E2,2.723444E2],"split_indices":[12,0,0,12,12,17,9,0,0,0,0,0,0,0,0],"split_type":[0,0,0,0,0,0,0,0,0,0,0,0,0,0,0],"sum_hessian":[1.45351E5,1.11272E5,3.4079E4,3.2986E4,7.8286E4,1.1159E4,2.292E4,1.8787E4,1.4199E4,4.5307E4,3.2979E4,7.674E3,3.485E3,1.2807E4,1.0113E4],"tree_param":{"num_deleted":"0","num_feature":"21","num_nodes":"15","size_leaf_vector":"1"}},{"base_weights":[1.8458582E4,1.6348503E4,2.1084555E4,1.3817435E4,1.7440639E4,1.7347838E4,2.2530605E4,1.2584269E2,1.4471252E2,1.4936824E2,1.807841E2,1.6784383E2,2.0508183E2,2.1044406E2,2.5596623E2],"categories":[],"categories_nodes":[],"categories_segments":[],"categories_sizes":[],"default_left":[0,0,0,0,0,0,0,0,0,0,0,0,0,0,0],"id":55,"left_children":[1,3,5,7,9,11,13,-1,-1,-1,-1,-1,-1,-1,-1],"loss_changes":[8.050547E11,2.2254977E11,3.4951764E11,1.9409666E10,8.963228E10,3.1836865E10,2.1219194E11,0E0,0E0,0E0,0E0,0E0,0E0,0E0,0E0],"parents":[2147483647,0,0,1,1,2,2,3,3,4,4,5,5,6,6],"right_children":[2,4,6,8,10,12,14,-1,-1,-1,-1,-1,-1,-1,-1],"split_conditions":[3.1988277E4,7E0,7E0,2.7684102E4,2.6875852E4,3.9917293E4,3.7236598E4,1.2584269E2,1.4471252E2,1.4936824E2,1.807841E2,1.6784383E2,2.0508183E2,2.1044406E2,2.5596623E2],"split_indices":[12,0,0,12,12,12,12,0,0,0,0,0,0,0,0],"split_type":[0,0,0,0,0,0,0,0,0,0,0,0,0,0,0],"sum_hessian":[1.45351E5,8.0596E4,6.4755E4,2.4298E4,5.6298E4,1.8071E4,4.6684E4,8.426E3,1.5872E4,1.1434E4,4.4864E4,1.5342E4,2.729E3,3.1448E4,1.5236E4],"tree_param":{"num_deleted":"0","num_feature":"21","num_nodes":"15","size_leaf_vector":"1"}},{"base_weights":[1.8274006E4,1.6885014E4,2.2188746E4,1.4480024E4,1.8143422E4,1.8538807E4,2.3996066E4,1.3288992E2,1.5510951E2,1.6769614E2,1.9607953E2,1.8173306E2,2.2412248E2,2.1879778E2,2.618954E2],"categories":[],"categories_nodes":[],"categories_segments":[],"categories_sizes":[],"default_left":[0,0,0,0,0,0,0,0,0,0,0,0,0,0,0],"id":56,"left_children":[1,3,5,7,9,11,13,-1,-1,-1,-1,-1,-1,-1,-1],"loss_changes":[7.899804E11,3.244462E11,2.5064322E11,4.5052592E10,1.413774E11,1.7445159E10,1.1758417E11,0E0,0E0,0E0,0E0,0E0,0E0,0E0,0E0],"parents":[2147483647,0,0,1,1,2,2,3,3,4,4,5,5,6,6],"right_children":[2,4,6,8,10,12,14,-1,-1,-1,-1,-1,-1,-1,-1],"split_conditions":[3.4766348E4,8E0,9E0,2.9205838E4,3.0095748E4,4.292595E4,6.062918E3,1.3288992E2,1.5510951E2,1.6769614E2,1.9607953E2,1.8173306E2,2.2412248E2,2.1879778E2,2.618954E2],"split_indices":[12,0,0,12,12,12,9,0,0,0,0,0,0,0,0],"split_type":[0,0,0,0,0,0,0,0,0,0,0,0,0,0,0],"sum_hessian":[1.45351E5,1.07289E5,3.8062E4,3.6859E4,7.043E4,1.2609E4,2.5453E4,1.7108E4,1.9751E4,3.6347E4,3.4083E4,1.1527E4,1.082E3,1.296E4,1.2493E4],"tree_param":{"num_deleted":"0","num_feature":"21","num_nodes":"15","size_leaf_vector":"1"}},{"base_weights":[1.8091275E4,1.6020888E4,2.0667855E4,1.3537344E4,1.7092516E4,1.7001326E4,2.2086746E4,1.2325567E2,1.4179823E2,1.4623827E2,1.7721344E2,1.6353818E2,1.9658519E2,2.1022958E2,2.622869E2],"categories":[],"categories_nodes":[],"categories_segments":[],"categories_sizes":[],"default_left":[0,0,0,0,0,0,0,0,0,0,0,0,0,0,0],"id":57,"left_children":[1,3,5,7,9,11,13,-1,-1,-1,-1,-1,-1,-1,-1],"loss_changes":[7.7505285E11,2.1427021E11,3.365132E11,1.8743296E10,8.713876E10,3.077256E10,2.051476E11,0E0,0E0,0E0,0E0,0E0,0E0,0E0,0E0],"parents":[2147483647,0,0,1,1,2,2,3,3,4,4,5,5,6,6],"right_children":[2,4,6,8,10,12,14,-1,-1,-1,-1,-1,-1,-1,-1],"split_conditions":[3.1988277E4,7E0,7E0,2.7684102E4,2.6875852E4,3.9046953E4,3.9046953E4,1.2325567E2,1.4179823E2,1.4623827E2,1.7721344E2,1.6353818E2,1.9658519E2,2.1022958E2,2.622869E2],"split_indices":[12,0,0,12,12,12,12,0,0,0,0,0,0,0,0],"split_type":[0,0,0,0,0,0,0,0,0,0,0,0,0,0,0],"sum_hessian":[1.45351E5,8.0596E4,6.4755E4,2.4298E4,5.6298E4,1.8071E4,4.6684E4,8.426E3,1.5872E4,1.1434E4,4.4864E4,1.4536E4,3.535E3,3.7149E4,9.535E3],"tree_param":{"num_deleted":"0","num_feature":"21","num_nodes":"15","size_leaf_vector":"1"}},{"base_weights":[1.7910373E4,1.6642836E4,2.2048422E4,1.3993046E4,1.7759139E4,1.8364389E4,2.3841176E4,1.2821715E2,1.5054811E2,1.6518666E2,1.9498361E2,1.7541646E2,2.0170522E2,2.2913824E2,2.8699362E2],"categories":[],"categories_nodes":[],"categories_segments":[],"categories_sizes":[],"default_left":[0,0,0,0,0,0,0,0,0,0,0,0,0,0,0],"id":58,"left_children":[1,3,5,7,9,11,13,-1,-1,-1,-1,-1,-1,-1,-1],"loss_changes":[7.6202115E11,3.2889635E11,2.2464692E11,4.08326E10,1.6857747E11,1.6230121E10,1.0260631E11,0E0,0E0,0E0,0E0,0E0,0E0,0E0,0E0],"parents":[2147483647,0,0,1,1,2,2,3,3,4,4,5,5,6,6],"right_children":[2,4,6,8,10,12,14,-1,-1,-1,-1,-1,-1,-1,-1],"split_conditions":[3.5271176E4,7E0,9E0,2.9525895E4,3.0742639E4,2.6037648E-1,4.2128945E4,1.2821715E2,1.5054811E2,1.6518666E2,1.9498361E2,1.7541646E2,2.0170522E2,2.2913824E2,2.8699362E2],"split_indices":[12,0,0,12,12,17,12,0,0,0,0,0,0,0,0],"split_type":[0,0,0,0,0,0,0,0,0,0,0,0,0,0,0],"sum_hessian":[1.45351E5,1.11272E5,3.4079E4,3.2986E4,7.8286E4,1.1159E4,2.292E4,1.569E4,1.7296E4,4.5701E4,3.2585E4,7.674E3,3.485E3,1.9251E4,3.669E3],"tree_param":{"num_deleted":"0","num_feature":"21","num_nodes":"15","size_leaf_vector":"1"}},{"base_weights":[1.773128E4,1.6462678E4,2.1783662E4,1.4107381E4,1.7692025E4,1.8151877E4,2.355797E4,1.3207607E2,1.5480415E2,1.639996E2,1.9260477E2,1.7334445E2,1.9922285E2,2.264807E2,2.8412448E2],"categories":[],"categories_nodes":[],"categories_segments":[],"categories_sizes":[],"default_left":[0,0,0,0,0,0,0,0,0,0,0,0,0,0,0],"id":59,"left_children":[1,3,5,7,9,11,13,-1,-1,-1,-1,-1,-1,-1,-1],"loss_changes":[7.468755E11,3.2028544E11,2.2286015E11,4.6704624E10,1.4708166E11,1.6119235E10,1.0216486E11,0E0,0E0,0E0,0E0,0E0,0E0,0E0,0E0],"parents":[2147483647,0,0,1,1,2,2,3,3,4,4,5,5,6,6],"right_children":[2,4,6,8,10,12,14,-1,-1,-1,-1,-1,-1,-1,-1],"split_conditions":[3.5195457E4,8E0,9E0,3.0567135E4,3.0480557E4,2.6037648E-1,4.2128945E4,1.3207607E2,1.5480415E2,1.639996E2,1.9260477E2,1.7334445E2,1.9922285E2,2.264807E2,2.8412448E2],"split_indices":[12,0,0,12,12,17,12,0,0,0,0,0,0,0,0],"split_type":[0,0,0,0,0,0,0,0,0,0,0,0,0,0,0],"sum_hessian":[1.45351E5,1.10701E5,3.465E4,3.7969E4,7.2732E4,1.1376E4,2.3274E4,2.2944E4,1.5025E4,3.9886E4,3.2846E4,7.79E3,3.586E3,1.9605E4,3.669E3],"tree_param":{"num_deleted":"0","num_feature":"21","num_nodes":"15","size_leaf_vector":"1"}},{"base_weights":[1.7553979E4,1.5841941E4,2.0500932E4,1.361376E4,1.7026861E4,1.6790629E4,2.1942115E4,1.2278607E2,1.4282672E2,1.5027911E2,1.7800316E2,1.627774E2,2.0180475E2,2.1006438E2,2.640555E2],"categories":[],"categories_nodes":[],"categories_segments":[],"categories_sizes":[],"default_left":[0,0,0,0,0,0,0,0,0,0,0,0,0,0,0],"id":60,"left_children":[1,3,5,7,9,11,13,-1,-1,-1,-1,-1,-1,-1,-1],"loss_changes":[7.3301754E11,2.4252095E11,2.8522316E11,2.8336718E10,9.252844E10,2.5656558E10,1.60084E11,0E0,0E0,0E0,0E0,0E0,0E0,0E0,0E0],"parents":[2147483647,0,0,1,1,2,2,3,3,4,4,5,5,6,6],"right_children":[2,4,6,8,10,12,14,-1,-1,-1,-1,-1,-1,-1,-1],"split_conditions":[3.30425E4,8E0,7E0,2.7784787E4,2.7882932E4,4.1004895E4,4.0322645E4,1.2278607E2,1.4282672E2,1.5027911E2,1.7800316E2,1.627774E2,2.0180475E2,2.1006438E2,2.640555E2],"split_indices":[12,0,0,12,12,12,12,0,0,0,0,0,0,0,0],"split_type":[0,0,0,0,0,0,0,0,0,0,0,0,0,0,0],"sum_hessian":[1.45351E5,9.1943E4,5.3408E4,3.1924E4,6.0019E4,1.4945E4,3.8463E4,1.0662E4,2.1262E4,1.675E4,4.3269E4,1.2986E4,1.959E3,3.1802E4,6.661E3],"tree_param":{"num_deleted":"0","num_feature":"21","num_nodes":"15","size_leaf_vector":"1"}},{"base_weights":[1.7378447E4,1.6146534E4,2.1400201E4,1.3570774E4,1.723165E4,1.7821031E4,2.3141928E4,1.257089E2,1.4751198E2,1.5438417E2,1.8374011E2,1.7012305E2,1.9596458E2,2.1294414E2,2.5479263E2],"categories":[],"categories_nodes":[],"categories_segments":[],"categories_sizes":[],"default_left":[0,0,0,0,0,0,0,0,0,0,0,0,0,0,0],"id":61,"left_children":[1,3,5,7,9,11,13,-1,-1,-1,-1,-1,-1,-1,-1],"loss_changes":[7.197929E11,3.1077066E11,2.120399E11,3.8748553E10,1.600882E11,1.5690367E10,9.843612E10,0E0,0E0,0E0,0E0,0E0,0E0,0E0,0E0],"parents":[2147483647,0,0,1,1,2,2,3,3,4,4,5,5,6,6],"right_children":[2,4,6,8,10,12,14,-1,-1,-1,-1,-1,-1,-1,-1],"split_conditions":[3.5271176E4,7E0,9E0,3.0095748E4,2.9205838E4,2.6037648E-1,6.491431E3,1.257089E2,1.4751198E2,1.5438417E2,1.8374011E2,1.7012305E2,1.9596458E2,2.1294414E2,2.5479263E2],"split_indices":[12,0,0,12,12,17,9,0,0,0,0,0,0,0,0],"split_type":[0,0,0,0,0,0,0,0,0,0,0,0,0,0,0],"sum_hessian":[1.45351E5,1.11272E5,3.4079E4,3.2986E4,7.8286E4,1.1159E4,2.292E4,1.7865E4,1.5121E4,3.047E4,4.7816E4,7.674E3,3.485E3,1.2807E4,1.0113E4],"tree_param":{"num_deleted":"0","num_feature":"21","num_nodes":"15","size_leaf_vector":"1"}},{"base_weights":[1.7204674E4,1.516379E4,1.9589207E4,1.2814712E4,1.6180174E4,1.6115085E4,2.0934217E4,1.1602699E2,1.3391591E2,1.3631381E2,1.6744995E2,1.5588515E2,1.9192024E2,1.9563553E2,2.3908777E2],"categories":[],"categories_nodes":[],"categories_segments":[],"categories_sizes":[],"default_left":[0,0,0,0,0,0,0,0,0,0,0,0,0,0,0],"id":62,"left_children":[1,3,5,7,9,11,13,-1,-1,-1,-1,-1,-1,-1,-1],"loss_changes":[7.070716E11,1.8679752E11,3.12872E11,1.6386621E10,7.846914E10,3.0018634E10,1.965304E11,0E0,0E0,0E0,0E0,0E0,0E0,0E0,0E0],"parents":[2147483647,0,0,1,1,2,2,3,3,4,4,5,5,6,6],"right_children":[2,4,6,8,10,12,14,-1,-1,-1,-1,-1,-1,-1,-1],"split_conditions":[3.1788047E4,7E0,7E0,2.7478791E4,2.6628832E4,3.9917293E4,3.7236598E4,1.1602699E2,1.3391591E2,1.3631381E2,1.6744995E2,1.5588515E2,1.9192024E2,1.9563553E2,2.3908777E2],"split_indices":[12,0,0,12,12,12,12,0,0,0,0,0,0,0,0],"split_type":[0,0,0,0,0,0,0,0,0,0,0,0,0,0,0],"sum_hessian":[1.45351E5,7.8323E4,6.7028E4,2.3658E4,5.4665E4,1.8711E4,4.8317E4,7.636E3,1.6022E4,9.921E3,4.4744E4,1.5982E4,2.729E3,3.3081E4,1.5236E4],"tree_param":{"num_deleted":"0","num_feature":"21","num_nodes":"15","size_leaf_vector":"1"}},{"base_weights":[1.7032635E4,1.5625215E4,2.042508E4,1.3399173E4,1.6795344E4,1.7115562E4,2.2082965E4,1.5288159E2,1.286112E2,1.5137897E2,1.7806853E2,1.6247205E2,1.8670842E2,2.0015521E2,2.4198505E2],"categories":[],"categories_nodes":[],"categories_segments":[],"categories_sizes":[],"default_left":[0,0,0,0,0,0,0,0,0,0,0,0,0,0,0],"id":63,"left_children":[1,3,5,7,9,11,13,-1,-1,-1,-1,-1,-1,-1,-1],"loss_changes":[6.9367916E11,2.673764E11,2.3345286E11,3.5785277E10,1.1261916E11,1.8912117E10,1.2368583E11,0E0,0E0,0E0,0E0,0E0,0E0,0E0,0E0],"parents":[2147483647,0,0,1,1,2,2,3,3,4,4,5,5,6,6],"right_children":[2,4,6,8,10,12,14,-1,-1,-1,-1,-1,-1,-1,-1],"split_conditions":[3.421496E4,8E0,9E0,8.5E1,2.8956846E4,2.7281126E-1,5.8415015E3,1.5288159E2,1.286112E2,1.5137897E2,1.7806853E2,1.6247205E2,1.8670842E2,2.0015521E2,2.4198505E2],"split_indices":[12,0,0,5,12,17,9,0,0,0,0,0,0,0,0],"split_type":[0,0,0,0,0,0,0,0,0,0,0,0,0,0,0],"sum_hessian":[1.45351E5,1.02735E5,4.2616E4,3.5401E4,6.7334E4,1.4227E4,2.8389E4,7.842E3,2.7559E4,2.5525E4,4.1809E4,9.137E3,5.09E3,1.4363E4,1.4026E4],"tree_param":{"num_deleted":"0","num_feature":"21","num_nodes":"15","size_leaf_vector":"1"}},{"base_weights":[1.6862318E4,1.4858724E4,1.9203287E4,1.2553644E4,1.5856071E4,1.5795239E4,2.0522717E4,1.1356442E2,1.3123479E2,1.3346246E2,1.6412259E2,1.5187389E2,1.8399751E2,1.9069165E2,2.3230466E2],"categories":[],"categories_nodes":[],"categories_segments":[],"categories_sizes":[],"default_left":[0,0,0,0,0,0,0,0,0,0,0,0,0,0,0],"id":64,"left_children":[1,3,5,7,9,11,13,-1,-1,-1,-1,-1,-1,-1,-1],"loss_changes":[6.8146535E11,1.7986434E11,3.0108392E11,1.5991308E10,7.609097E10,2.93444E10,1.8973144E11,0E0,0E0,0E0,0E0,0E0,0E0,0E0,0E0],"parents":[2147483647,0,0,1,1,2,2,3,3,4,4,5,5,6,6],"right_children":[2,4,6,8,10,12,14,-1,-1,-1,-1,-1,-1,-1,-1],"split_conditions":[3.1788047E4,7E0,7E0,2.7478791E4,2.6628832E4,3.9046953E4,3.6854215E4,1.1356442E2,1.3123479E2,1.3346246E2,1.6412259E2,1.5187389E2,1.8399751E2,1.9069165E2,2.3230466E2],"split_indices":[12,0,0,12,12,12,12,0,0,0,0,0,0,0,0],"split_type":[0,0,0,0,0,0,0,0,0,0,0,0,0,0,0],"sum_hessian":[1.45351E5,7.8323E4,6.7028E4,2.3658E4,5.4665E4,1.8711E4,4.8317E4,7.636E3,1.6022E4,9.921E3,4.4744E4,1.5176E4,3.535E3,3.1445E4,1.6872E4],"tree_param":{"num_deleted":"0","num_feature":"21","num_nodes":"15","size_leaf_vector":"1"}},{"base_weights":[1.6693705E4,1.5506556E4,2.056932E4,1.30290625E4,1.6550273E4,1.7326709E4,2.2354277E4,1.1924801E2,1.403004E2,1.5092435E2,1.7858919E2,1.6486517E2,1.9121654E2,2.045326E2,2.4888074E2],"categories":[],"categories_nodes":[],"categories_segments":[],"categories_sizes":[],"default_left":[0,0,0,0,0,0,0,0,0,0,0,0,0,0,0],"id":65,"left_children":[1,3,5,7,9,11,13,-1,-1,-1,-1,-1,-1,-1,-1],"loss_changes":[6.6843365E11,2.8751534E11,1.968649E11,3.629436E10,1.4908654E11,1.7939038E10,1.0535043E11,0E0,0E0,0E0,0E0,0E0,0E0,0E0,0E0],"parents":[2147483647,0,0,1,1,2,2,3,3,4,4,5,5,6,6],"right_children":[2,4,6,8,10,12,14,-1,-1,-1,-1,-1,-1,-1,-1],"split_conditions":[3.5271176E4,7E0,1E1,2.9525895E4,2.984295E4,2.6037648E-1,6.541484E3,1.1924801E2,1.403004E2,1.5092435E2,1.7858919E2,1.6486517E2,1.9121654E2,2.045326E2,2.4888074E2],"split_indices":[12,0,0,12,12,17,9,0,0,0,0,0,0,0,0],"split_type":[0,0,0,0,0,0,0,0,0,0,0,0,0,0,0],"sum_hessian":[1.45351E5,1.11272E5,3.4079E4,3.2986E4,7.8286E4,1.2103E4,2.1976E4,1.569E4,1.7296E4,3.7038E4,4.1248E4,8.251E3,3.852E3,1.2561E4,9.415E3],"tree_param":{"num_deleted":"0","num_feature":"21","num_nodes":"15","size_leaf_vector":"1"}},{"base_weights":[1.6526777E4,1.4795803E4,1.9137756E4,1.2720952E4,1.5906667E4,1.5688439E4,2.0478316E4,1.1525167E2,1.3363536E2,1.3402895E2,1.6446878E2,1.5218427E2,1.9100497E2,1.9626468E2,2.495851E2],"categories":[],"categories_nodes":[],"categories_segments":[],"categories_sizes":[],"default_left":[0,0,0,0,0,0,0,0,0,0,0,0,0,0,0],"id":66,"left_children":[1,3,5,7,9,11,13,-1,-1,-1,-1,-1,-1,-1,-1],"loss_changes":[6.5663926E11,2.0126787E11,2.6760918E11,2.3269999E10,7.6776735E10,2.5723142E10,1.5874287E11,0E0,0E0,0E0,0E0,0E0,0E0,0E0,0E0],"parents":[2147483647,0,0,1,1,2,2,3,3,4,4,5,5,6,6],"right_children":[2,4,6,8,10,12,14,-1,-1,-1,-1,-1,-1,-1,-1],"split_conditions":[3.2609656E4,8E0,7E0,2.7784787E4,2.6875852E4,4.1004895E4,4.0322645E4,1.1525167E2,1.3363536E2,1.3402895E2,1.6446878E2,1.5218427E2,1.9100497E2,1.9626468E2,2.495851E2],"split_indices":[12,0,0,12,12,12,12,0,0,0,0,0,0,0,0],"split_type":[0,0,0,0,0,0,0,0,0,0,0,0,0,0,0],"sum_hessian":[1.45351E5,8.7409E4,5.7942E4,3.0484E4,5.6925E4,1.622E4,4.1722E4,1.0662E4,1.9822E4,1.0107E4,4.6818E4,1.4261E4,1.959E3,3.5061E4,6.661E3],"tree_param":{"num_deleted":"0","num_feature":"21","num_nodes":"15","size_leaf_vector":"1"}},{"base_weights":[1.6361519E4,1.5195891E4,2.0166875E4,1.2766194E4,1.6219473E4,1.6983453E4,2.191925E4,1.1682217E2,1.3748788E2,1.5085634E2,1.7844666E2,1.6149657E2,1.8764795E2,2.0008223E2,2.4366016E2],"categories":[],"categories_nodes":[],"categories_segments":[],"categories_sizes":[],"default_left":[0,0,0,0,0,0,0,0,0,0,0,0,0,0,0],"id":67,"left_children":[1,3,5,7,9,11,13,-1,-1,-1,-1,-1,-1,-1,-1],"loss_changes":[6.4442126E11,2.7652627E11,1.8974402E11,3.497368E10,1.4399255E11,1.767506E10,1.0227286E11,0E0,0E0,0E0,0E0,0E0,0E0,0E0,0E0],"parents":[2147483647,0,0,1,1,2,2,3,3,4,4,5,5,6,6],"right_children":[2,4,6,8,10,12,14,-1,-1,-1,-1,-1,-1,-1,-1],"split_conditions":[3.5271176E4,7E0,1E1,2.9525895E4,3.0786633E4,2.6037648E-1,6.491431E3,1.1682217E2,1.3748788E2,1.5085634E2,1.7844666E2,1.6149657E2,1.8764795E2,2.0008223E2,2.4366016E2],"split_indices":[12,0,0,12,12,17,9,0,0,0,0,0,0,0,0],"split_type":[0,0,0,0,0,0,0,0,0,0,0,0,0,0,0],"sum_hessian":[1.45351E5,1.11272E5,3.4079E4,3.2986E4,7.8286E4,1.2103E4,2.1976E4,1.569E4,1.7296E4,4.612E4,3.2166E4,8.251E3,3.852E3,1.2344E4,9.632E3],"tree_param":{"num_deleted":"0","num_feature":"21","num_nodes":"15","size_leaf_vector":"1"}},{"base_weights":[1.6197912E4,1.4267587E4,1.8453273E4,1.2051197E4,1.5226562E4,1.5617056E4,1.9922875E4,1.0891617E2,1.2603133E2,1.2779241E2,1.5768903E2,1.4685606E2,1.6853415E2,1.8400134E2,2.2621712E2],"categories":[],"categories_nodes":[],"categories_segments":[],"categories_sizes":[],"default_left":[0,0,0,0,0,0,1,0,0,0,0,0,0,0,0],"id":68,"left_children":[1,3,5,7,9,11,13,-1,-1,-1,-1,-1,-1,-1,-1],"loss_changes":[6.325388E11,1.6629157E11,2.790722E11,1.5004598E10,7.235594E10,2.6103775E10,1.8101672E11,0E0,0E0,0E0,0E0,0E0,0E0,0E0,0E0],"parents":[2147483647,0,0,1,1,2,2,3,3,4,4,5,5,6,6],"right_children":[2,4,6,8,10,12,14,-1,-1,-1,-1,-1,-1,-1,-1],"split_conditions":[3.1788047E4,7E0,9E0,2.7478791E4,2.6628832E4,2.228204E-1,5.8415015E3,1.0891617E2,1.2603133E2,1.2779241E2,1.5768903E2,1.4685606E2,1.6853415E2,1.8400134E2,2.2621712E2],"split_indices":[12,0,0,12,12,17,9,0,0,0,0,0,0,0,0],"split_type":[0,0,0,0,0,0,0,0,0,0,0,0,0,0,0],"sum_hessian":[1.45351E5,7.8323E4,6.7028E4,2.3658E4,5.4665E4,2.2881E4,4.4147E4,7.636E3,1.6022E4,9.921E3,4.4744E4,1.3057E4,9.824E3,2.8228E4,1.5919E4],"tree_param":{"num_deleted":"0","num_feature":"21","num_nodes":"15","size_leaf_vector":"1"}},{"base_weights":[1.6035941E4,1.4890516E4,1.9775348E4,1.2747223E4,1.6008815E4,1.6655777E4,2.1492574E4,1.4656078E2,1.21661316E2,1.4719711E2,1.7339182E2,1.5835974E2,1.8407233E2,1.9652347E2,2.3945358E2],"categories":[],"categories_nodes":[],"categories_segments":[],"categories_sizes":[],"default_left":[0,0,0,0,0,0,0,0,0,0,0,0,0,0,0],"id":69,"left_children":[1,3,5,7,9,11,13,-1,-1,-1,-1,-1,-1,-1,-1],"loss_changes":[6.222753E11,2.6650188E11,1.8221E11,4.214594E10,1.2513916E11,1.7087857E10,9.872658E10,0E0,0E0,0E0,0E0,0E0,0E0,0E0,0E0],"parents":[2147483647,0,0,1,1,2,2,3,3,4,4,5,5,6,6],"right_children":[2,4,6,8,10,12,14,-1,-1,-1,-1,-1,-1,-1,-1],"split_conditions":[3.5271176E4,8E0,1E1,8.5E1,3.0178055E4,2.6037648E-1,6.541484E3,1.4656078E2,1.21661316E2,1.4719711E2,1.7339182E2,1.5835974E2,1.8407233E2,1.9652347E2,2.3945358E2],"split_indices":[12,0,0,5,12,17,9,0,0,0,0,0,0,0,0],"split_type":[0,0,0,0,0,0,0,0,0,0,0,0,0,0,0],"sum_hessian":[1.45351E5,1.11272E5,3.4079E4,3.8156E4,7.3116E4,1.2103E4,2.1976E4,8.899E3,2.9257E4,3.714E4,3.5976E4,8.251E3,3.852E3,1.2561E4,9.415E3],"tree_param":{"num_deleted":"0","num_feature":"21","num_nodes":"15","size_leaf_vector":"1"}},{"base_weights":[1.5875592E4,1.4429708E4,1.8781223E4,1.2373973E4,1.5514345E4,1.5334659E4,2.012207E4,1.4073195E2,1.1882452E2,1.3690425E2,1.6286557E2,1.4932098E2,1.948891E2,1.9334451E2,2.47969E2],"categories":[],"categories_nodes":[],"categories_segments":[],"categories_sizes":[],"default_left":[0,0,0,0,0,0,0,0,0,0,0,0,0,0,0],"id":70,"left_children":[1,3,5,7,9,11,13,-1,-1,-1,-1,-1,-1,-1,-1],"loss_changes":[6.103845E11,2.1622476E11,2.2286749E11,2.7834974E10,8.926003E10,2.2335717E10,1.2752047E11,0E0,0E0,0E0,0E0,0E0,0E0,0E0,0E0],"parents":[2147483647,0,0,1,1,2,2,3,3,4,4,5,5,6,6],"right_children":[2,4,6,8,10,12,14,-1,-1,-1,-1,-1,-1,-1,-1],"split_conditions":[3.356795E4,8E0,7E0,8.8E1,2.8164252E4,4.2501094E4,4.1260652E4,1.4073195E2,1.1882452E2,1.3690425E2,1.6286557E2,1.4932098E2,1.948891E2,1.9334451E2,2.47969E2],"split_indices":[12,0,0,5,12,12,12,0,0,0,0,0,0,0,0],"split_type":[0,0,0,0,0,0,0,0,0,0,0,0,0,0,0],"sum_hessian":[1.45351E5,9.7059E4,4.8292E4,3.3527E4,6.3532E4,1.3529E4,3.4763E4,7.516E3,2.6011E4,1.8903E4,4.4629E4,1.2338E4,1.191E3,2.9755E4,5.008E3],"tree_param":{"num_deleted":"0","num_feature":"21","num_nodes":"15","size_leaf_vector":"1"}},{"base_weights":[1.5716846E4,1.4629432E4,1.9510771E4,1.2277781E4,1.5618968E4,1.6403916E4,2.120391E4,1.13820625E2,1.3423552E2,1.448572E2,1.7183693E2,1.5596313E2,1.8221353E2,1.9427682E2,2.3659036E2],"categories":[],"categories_nodes":[],"categories_segments":[],"categories_sizes":[],"default_left":[0,0,0,0,0,0,0,0,0,0,0,0,0,0,0],"id":71,"left_children":[1,3,5,7,9,11,13,-1,-1,-1,-1,-1,-1,-1,-1],"loss_changes":[5.993786E11,2.6270813E11,1.6996578E11,3.4190918E10,1.4074616E11,1.6484925E10,9.091259E10,0E0,0E0,0E0,0E0,0E0,0E0,0E0,0E0],"parents":[2147483647,0,0,1,1,2,2,3,3,4,4,5,5,6,6],"right_children":[2,4,6,8,10,12,14,-1,-1,-1,-1,-1,-1,-1,-1],"split_conditions":[3.550957E4,7E0,1E1,3.0349035E4,3.0786633E4,1.5951325E-1,6.6422627E3,1.13820625E2,1.3423552E2,1.448572E2,1.7183693E2,1.5596313E2,1.8221353E2,1.9427682E2,2.3659036E2],"split_indices":[12,0,0,12,12,17,9,0,0,0,0,0,0,0,0],"split_type":[0,0,0,0,0,0,0,0,0,0,0,0,0,0,0],"sum_hessian":[1.45351E5,1.12975E5,3.2376E4,3.3463E4,7.9512E4,1.1424E4,2.0952E4,1.8787E4,1.4676E4,4.612E4,3.3392E4,7.916E3,3.508E3,1.2162E4,8.79E3],"tree_param":{"num_deleted":"0","num_feature":"21","num_nodes":"15","size_leaf_vector":"1"}},{"base_weights":[1.5559686E4,1.369842E4,1.773436E4,1.1563563E4,1.4622118E4,1.457441E4,1.8957738E4,1.04250595E2,1.2105484E2,1.2107242E2,1.5128407E2,1.4089479E2,1.7602444E2,1.8033795E2,2.2713437E2],"categories":[],"categories_nodes":[],"categories_segments":[],"categories_sizes":[],"default_left":[0,0,0,0,0,0,0,0,0,0,0,0,0,0,0],"id":72,"left_children":[1,3,5,7,9,11,13,-1,-1,-1,-1,-1,-1,-1,-1],"loss_changes":[5.8808756E11,1.5428328E11,2.5884518E11,1.4470873E10,6.942202E10,2.7228373E10,1.6725626E11,0E0,0E0,0E0,0E0,0E0,0E0,0E0,0E0],"parents":[2147483647,0,0,1,1,2,2,3,3,4,4,5,5,6,6],"right_children":[2,4,6,8,10,12,14,-1,-1,-1,-1,-1,-1,-1,-1],"split_conditions":[3.1788047E4,7E0,7E0,2.7478791E4,2.6495037E4,4.011516E4,3.9046953E4,1.04250595E2,1.2105484E2,1.2107242E2,1.5128407E2,1.4089479E2,1.7602444E2,1.8033795E2,2.2713437E2],"split_indices":[12,0,0,12,12,12,12,0,0,0,0,0,0,0,0],"split_type":[0,0,0,0,0,0,0,0,0,0,0,0,0,0,0],"sum_hessian":[1.45351E5,7.8323E4,6.7028E4,2.3658E4,5.4665E4,1.8711E4,4.8317E4,7.636E3,1.6022E4,9.165E3,4.55E4,1.6133E4,2.578E3,3.8782E4,9.535E3],"tree_param":{"num_deleted":"0","num_feature":"21","num_nodes":"15","size_leaf_vector":"1"}},{"base_weights":[1.5404098E4,1.4300129E4,1.900816E4,1.2238908E4,1.5375606E4,1.6001742E4,2.0663104E4,1.1440903E2,1.3565279E2,1.386346E2,1.6431578E2,1.5193918E2,1.7727713E2,1.8839366E2,2.2998132E2],"categories":[],"categories_nodes":[],"categories_segments":[],"categories_sizes":[],"default_left":[0,0,0,0,0,0,0,0,0,0,0,0,0,0,0],"id":73,"left_children":[1,3,5,7,9,11,13,-1,-1,-1,-1,-1,-1,-1,-1],"loss_changes":[5.780506E11,2.4648247E11,1.6923283E11,4.0231764E10,1.1652406E11,1.6607085E10,9.315549E10,0E0,0E0,0E0,0E0,0E0,0E0,0E0,0E0],"parents":[2147483647,0,0,1,1,2,2,3,3,4,4,5,5,6,6],"right_children":[2,4,6,8,10,12,14,-1,-1,-1,-1,-1,-1,-1,-1],"split_conditions":[3.5271176E4,8E0,1E1,4.2180607E-1,2.944669E4,2.6037648E-1,6.491431E3,1.1440903E2,1.3565279E2,1.386346E2,1.6431578E2,1.5193918E2,1.7727713E2,1.8839366E2,2.2998132E2],"split_indices":[12,0,0,17,12,17,9,0,0,0,0,0,0,0,0],"split_type":[0,0,0,0,0,0,0,0,0,0,0,0,0,0,0],"sum_hessian":[1.45351E5,1.11272E5,3.4079E4,3.8156E4,7.3116E4,1.2103E4,2.1976E4,2.3829E4,1.4327E4,3.007E4,4.3046E4,8.251E3,3.852E3,1.2344E4,9.632E3],"tree_param":{"num_deleted":"0","num_feature":"21","num_nodes":"15","size_leaf_vector":"1"}},{"base_weights":[1.5250065E4,1.3520581E4,1.7507424E4,1.14001875E4,1.4433077E4,1.436898E4,1.8722723E4,1.0224578E2,1.1943883E2,1.2171094E2,1.4993806E2,1.3941513E2,1.7773758E2,1.7881749E2,2.2712523E2],"categories":[],"categories_nodes":[],"categories_segments":[],"categories_sizes":[],"default_left":[0,0,0,0,0,0,0,0,0,0,0,0,0,0,0],"id":74,"left_children":[1,3,5,7,9,11,13,-1,-1,-1,-1,-1,-1,-1,-1],"loss_changes":[5.672293E11,1.5907946E11,2.4021408E11,1.5708193E10,7.279529E10,2.5373704E10,1.5208127E11,0E0,0E0,0E0,0E0,0E0,0E0,0E0,0E0],"parents":[2147483647,0,0,1,1,2,2,3,3,4,4,5,5,6,6],"right_children":[2,4,6,8,10,12,14,-1,-1,-1,-1,-1,-1,-1,-1],"split_conditions":[3.214899E4,7E0,7E0,2.7530674E4,2.6875852E4,4.1004895E4,3.973352E4,1.0224578E2,1.1943883E2,1.2171094E2,1.4993806E2,1.3941513E2,1.7773758E2,1.7881749E2,2.2712523E2],"split_indices":[12,0,0,12,12,12,12,0,0,0,0,0,0,0,0],"split_type":[0,0,0,0,0,0,0,0,0,0,0,0,0,0,0],"sum_hessian":[1.45351E5,8.2302E4,6.3049E4,2.4766E4,5.7536E4,1.7603E4,4.5446E4,7.838E3,1.6928E4,1.1434E4,4.6102E4,1.5644E4,1.959E3,3.7539E4,7.907E3],"tree_param":{"num_deleted":"0","num_feature":"21","num_nodes":"15","size_leaf_vector":"1"}},{"base_weights":[1.5097572E4,1.4048687E4,1.875708E4,1.2016607E4,1.510709E4,1.5763186E4,2.0388662E4,1.3870154E2,1.14461395E2,1.4019049E2,1.6570248E2,1.4967244E2,1.7554495E2,1.8543777E2,2.2616435E2],"categories":[],"categories_nodes":[],"categories_segments":[],"categories_sizes":[],"default_left":[0,0,0,0,0,0,0,0,0,0,0,0,0,0,0],"id":75,"left_children":[1,3,5,7,9,11,13,-1,-1,-1,-1,-1,-1,-1,-1],"loss_changes":[5.576579E11,2.4280197E11,1.578327E11,4.075815E10,1.1802142E11,1.6026698E10,8.569697E10,0E0,0E0,0E0,0E0,0E0,0E0,0E0,0E0],"parents":[2147483647,0,0,1,1,2,2,3,3,4,4,5,5,6,6],"right_children":[2,4,6,8,10,12,14,-1,-1,-1,-1,-1,-1,-1,-1],"split_conditions":[3.550957E4,8E0,1E1,8.5E1,3.0786633E4,1.5951325E-1,6.491431E3,1.3870154E2,1.14461395E2,1.4019049E2,1.6570248E2,1.4967244E2,1.7554495E2,1.8543777E2,2.2616435E2],"split_indices":[12,0,0,5,12,17,9,0,0,0,0,0,0,0,0],"split_type":[0,0,0,0,0,0,0,0,0,0,0,0,0,0,0],"sum_hessian":[1.45351E5,1.12975E5,3.2376E4,3.8695E4,7.428E4,1.1424E4,2.0952E4,9.101E3,2.9594E4,4.2607E4,3.1673E4,7.916E3,3.508E3,1.1466E4,9.486E3],"tree_param":{"num_deleted":"0","num_feature":"21","num_nodes":"15","size_leaf_vector":"1"}},{"base_weights":[1.4946605E4,1.3601776E4,1.7746744E4,1.1658211E4,1.4626737E4,1.4472743E4,1.9016904E4,1.3314459E2,1.1173742E2,1.285667E2,1.5363693E2,1.4073228E2,1.8480537E2,1.8368137E2,2.4242126E2],"categories":[],"categories_nodes":[],"categories_segments":[],"categories_sizes":[],"default_left":[0,0,0,0,0,0,0,0,0,0,0,0,0,0,0],"id":76,"left_children":[1,3,5,7,9,11,13,-1,-1,-1,-1,-1,-1,-1,-1],"loss_changes":[5.471134E11,1.9544408E11,1.9582367E11,2.70606E10,8.366378E10,2.0851458E10,1.1471736E11,0E0,0E0,0E0,0E0,0E0,0E0,0E0,0E0],"parents":[2147483647,0,0,1,1,2,2,3,3,4,4,5,5,6,6],"right_children":[2,4,6,8,10,12,14,-1,-1,-1,-1,-1,-1,-1,-1],"split_conditions":[3.3692152E4,8E0,7E0,8.8E1,2.8164252E4,4.2501094E4,4.2128945E4,1.3314459E2,1.1173742E2,1.285667E2,1.5363693E2,1.4073228E2,1.8480537E2,1.8368137E2,2.4242126E2],"split_indices":[12,0,0,5,12,12,12,0,0,0,0,0,0,0,0],"split_type":[0,0,0,0,0,0,0,0,0,0,0,0,0,0,0],"sum_hessian":[1.45351E5,9.8196E4,4.7155E4,3.3909E4,6.4287E4,1.3184E4,3.3971E4,7.668E3,2.6241E4,1.8903E4,4.5384E4,1.1993E4,1.191E3,3.0223E4,3.748E3],"tree_param":{"num_deleted":"0","num_feature":"21","num_nodes":"15","size_leaf_vector":"1"}},{"base_weights":[1.4797148E4,1.381371E4,1.8560668E4,1.1579147E4,1.4751538E4,1.5554782E4,2.0184459E4,1.06955376E2,1.2682108E2,1.3629419E2,1.6227629E2,1.4783008E2,1.7415286E2,1.8420912E2,2.241163E2],"categories":[],"categories_nodes":[],"categories_segments":[],"categories_sizes":[],"default_left":[0,0,0,0,0,0,0,0,0,0,0,0,0,0,0],"id":77,"left_children":[1,3,5,7,9,11,13,-1,-1,-1,-1,-1,-1,-1,-1],"loss_changes":[5.3771816E11,2.4133606E11,1.4665279E11,3.3071038E10,1.3422821E11,1.4912586E10,7.635835E10,0E0,0E0,0E0,0E0,0E0,0E0,0E0,0E0],"parents":[2147483647,0,0,1,1,2,2,3,3,4,4,5,5,6,6],"right_children":[2,4,6,8,10,12,14,-1,-1,-1,-1,-1,-1,-1,-1],"split_conditions":[3.5810387E4,7E0,1E1,3.0392664E4,3.0786633E4,3.7447366E-1,6.6422627E3,1.06955376E2,1.2682108E2,1.3629419E2,1.6227629E2,1.4783008E2,1.7415286E2,1.8420912E2,2.241163E2],"split_indices":[12,0,0,12,12,17,9,0,0,0,0,0,0,0,0],"split_type":[0,0,0,0,0,0,0,0,0,0,0,0,0,0,0],"sum_hessian":[1.45351E5,1.15242E5,3.0109E4,3.4072E4,8.117E4,1.0564E4,1.9545E4,1.8923E4,1.5149E4,4.612E4,3.505E4,7.473E3,3.091E3,1.0913E4,8.632E3],"tree_param":{"num_deleted":"0","num_feature":"21","num_nodes":"15","size_leaf_vector":"1"}},{"base_weights":[1.4649186E4,1.2886326E4,1.6708885E4,1.0867339E4,1.3759891E4,1.372765E4,1.7863076E4,9.703024E1,1.1366076E2,1.4585948E2,1.2312692E2,1.3293568E2,1.6859634E2,1.6661057E2,2.0471683E2],"categories":[],"categories_nodes":[],"categories_segments":[],"categories_sizes":[],"default_left":[0,0,0,0,0,0,0,0,0,0,0,0,0,0,0],"id":78,"left_children":[1,3,5,7,9,11,13,-1,-1,-1,-1,-1,-1,-1,-1],"loss_changes":[5.2755327E11,1.379926E11,2.3039312E11,1.362808E10,6.5172144E10,2.5215631E10,1.5116586E11,0E0,0E0,0E0,0E0,0E0,0E0,0E0,0E0],"parents":[2147483647,0,0,1,1,2,2,3,3,4,4,5,5,6,6],"right_children":[2,4,6,8,10,12,14,-1,-1,-1,-1,-1,-1,-1,-1],"split_conditions":[3.1788047E4,7E0,7E0,2.7323107E4,5E0,4.0539105E4,3.7236598E4,9.703024E1,1.1366076E2,1.4585948E2,1.2312692E2,1.3293568E2,1.6859634E2,1.6661057E2,2.0471683E2],"split_indices":[12,0,0,12,1,12,12,0,0,0,0,0,0,0,0],"split_type":[0,0,0,0,0,0,0,0,0,0,0,0,0,0,0],"sum_hessian":[1.45351E5,7.8323E4,6.7028E4,2.3658E4,5.4665E4,1.8711E4,4.8317E4,7.101E3,1.6557E4,3.4795E4,1.987E4,1.6438E4,2.273E3,3.3081E4,1.5236E4],"tree_param":{"num_deleted":"0","num_feature":"21","num_nodes":"15","size_leaf_vector":"1"}},{"base_weights":[1.4502702E4,1.3537669E4,1.8195785E4,1.134728E4,1.4456958E4,1.5246589E4,1.9788953E4,1.0236699E2,1.2192677E2,1.2772127E2,1.540775E2,1.4478796E2,1.7088284E2,1.8048248E2,2.1987294E2],"categories":[],"categories_nodes":[],"categories_segments":[],"categories_sizes":[],"default_left":[0,0,0,0,0,0,0,0,0,0,0,0,0,0,0],"id":79,"left_children":[1,3,5,7,9,11,13,-1,-1,-1,-1,-1,-1,-1,-1],"loss_changes":[5.1778054E11,2.3188839E11,1.4117188E11,3.18657E10,1.2983363E11,1.4691598E10,7.439961E10,0E0,0E0,0E0,0E0,0E0,0E0,0E0,0E0],"parents":[2147483647,0,0,1,1,2,2,3,3,4,4,5,5,6,6],"right_children":[2,4,6,8,10,12,14,-1,-1,-1,-1,-1,-1,-1,-1],"split_conditions":[3.5810387E4,7E0,1E1,2.928725E4,2.9079059E4,1.5951325E-1,6.6422627E3,1.0236699E2,1.2192677E2,1.2772127E2,1.540775E2,1.4478796E2,1.7088284E2,1.8048248E2,2.1987294E2],"split_indices":[12,0,0,12,12,17,9,0,0,0,0,0,0,0,0],"split_type":[0,0,0,0,0,0,0,0,0,0,0,0,0,0,0],"sum_hessian":[1.45351E5,1.15242E5,3.0109E4,3.4072E4,8.117E4,1.0564E4,1.9545E4,1.4732E4,1.934E4,2.9287E4,5.1883E4,7.462E3,3.102E3,1.0913E4,8.632E3],"tree_param":{"num_deleted":"0","num_feature":"21","num_nodes":"15","size_leaf_vector":"1"}},{"base_weights":[1.4357683E4,1.2871052E4,1.6712945E4,1.1045141E4,1.3845815E4,1.3671283E4,1.78948E4,9.913424E1,1.1637363E2,1.1458508E2,1.4328186E2,1.3302933E2,1.7544336E2,1.7201292E2,2.2369737E2],"categories":[],"categories_nodes":[],"categories_segments":[],"categories_sizes":[],"default_left":[0,0,0,0,0,0,0,0,0,0,0,0,0,0,0],"id":80,"left_children":[1,3,5,7,9,11,13,-1,-1,-1,-1,-1,-1,-1,-1],"loss_changes":[5.0872084E11,1.5845032E11,2.0193057E11,2.0675035E10,6.6734522E10,2.222483E10,1.2530378E11,0E0,0E0,0E0,0E0,0E0,0E0,0E0,0E0],"parents":[2147483647,0,0,1,1,2,2,3,3,4,4,5,5,6,6],"right_children":[2,4,6,8,10,12,14,-1,-1,-1,-1,-1,-1,-1,-1],"split_conditions":[3.2765223E4,8E0,7E0,2.7784787E4,2.6818021E4,4.2128945E4,4.1004895E4,9.913424E1,1.1637363E2,1.1458508E2,1.4328186E2,1.3302933E2,1.7544336E2,1.7201292E2,2.2369737E2],"split_indices":[12,0,0,12,12,12,12,0,0,0,0,0,0,0,0],"split_type":[0,0,0,0,0,0,0,0,0,0,0,0,0,0,0],"sum_hessian":[1.45351E5,8.9111E4,5.624E4,3.1019E4,5.8092E4,1.5741E4,4.0499E4,1.0662E4,2.0357E4,9.769E3,4.8323E4,1.4378E4,1.363E3,3.5069E4,5.43E3],"tree_param":{"num_deleted":"0","num_feature":"21","num_nodes":"15","size_leaf_vector":"1"}},{"base_weights":[1.4214114E4,1.31093955E4,1.7327664E4,1.1220727E4,1.4097643E4,1.4441083E4,1.8757006E4,1.0480866E2,1.24750694E2,1.2439153E2,1.4897719E2,1.4101083E2,1.8046877E2,1.6814204E2,2.0500652E2],"categories":[],"categories_nodes":[],"categories_segments":[],"categories_sizes":[],"default_left":[0,0,0,0,0,0,0,0,0,0,0,0,0,0,0],"id":81,"left_children":[1,3,5,7,9,11,13,-1,-1,-1,-1,-1,-1,-1,-1],"loss_changes":[4.9972616E11,2.0009347E11,1.567747E11,3.4077147E10,9.326979E10,1.5204876E10,8.588152E10,0E0,0E0,0E0,0E0,0E0,0E0,0E0,0E0],"parents":[2147483647,0,0,1,1,2,2,3,3,4,4,5,5,6,6],"right_children":[2,4,6,8,10,12,14,-1,-1,-1,-1,-1,-1,-1,-1],"split_conditions":[3.4766348E4,8E0,9E0,4.2180607E-1,2.8663305E4,4.292595E4,5.8415015E3,1.0480866E2,1.24750694E2,1.2439153E2,1.4897719E2,1.4101083E2,1.8046877E2,1.6814204E2,2.0500652E2],"split_indices":[12,0,0,17,12,12,9,0,0,0,0,0,0,0,0],"split_type":[0,0,0,0,0,0,0,0,0,0,0,0,0,0,0],"sum_hessian":[1.45351E5,1.07289E5,3.8062E4,3.6859E4,7.043E4,1.2609E4,2.5453E4,2.319E4,1.3669E4,2.2925E4,4.7505E4,1.1527E4,1.082E3,1.2044E4,1.3409E4],"tree_param":{"num_deleted":"0","num_feature":"21","num_nodes":"15","size_leaf_vector":"1"}},{"base_weights":[1.4071981E4,1.2331198E4,1.6016065E4,1.0396696E4,1.3170825E4,1.355176E4,1.7295135E4,9.205445E1,1.0846405E2,1.3990025E2,1.175256E2,1.2640413E2,1.4748622E2,1.5750343E2,1.9500917E2],"categories":[],"categories_nodes":[],"categories_segments":[],"categories_sizes":[],"default_left":[0,0,0,0,0,0,1,0,0,0,0,0,0,0,0],"id":82,"left_children":[1,3,5,7,9,11,13,-1,-1,-1,-1,-1,-1,-1,-1],"loss_changes":[4.9170455E11,1.2442822E11,2.161933E11,1.2337283E10,6.19656E10,2.5409094E10,1.5370446E11,0E0,0E0,0E0,0E0,0E0,0E0,0E0,0E0],"parents":[2147483647,0,0,1,1,2,2,3,3,4,4,5,5,6,6],"right_children":[2,4,6,8,10,12,14,-1,-1,-1,-1,-1,-1,-1,-1],"split_conditions":[3.1646807E4,7E0,9E0,2.7111229E4,5E0,2.228204E-1,5.4397695E3,9.205445E1,1.0846405E2,1.3990025E2,1.175256E2,1.2640413E2,1.4748622E2,1.5750343E2,1.9500917E2],"split_indices":[12,0,0,12,1,17,9,0,0,0,0,0,0,0,0],"split_type":[0,0,0,0,0,0,0,0,0,0,0,0,0,0,0],"sum_hessian":[1.45351E5,7.6689E4,6.8662E4,2.3215E4,5.3474E4,2.3465E4,4.5197E4,6.368E3,1.6847E4,3.389E4,1.9584E4,1.3328E4,1.0137E4,2.6586E4,1.8611E4],"tree_param":{"num_deleted":"0","num_feature":"21",